-626
-626
-626
-626
-626
-626
-626
-626
-626
-626
-626
-626
-626
-626
-626
-626
-626
-626
-626
-626
-626
-626
-626
-626
-626
-626
-626
-626
-626
-626
-626
-626
-626
-626
-626
-626
-626
-626
-626
-626
-45
209
-2599
-4241
-3296
-1907
-626
-626
-626
-626
-626
-626
-626
-626
-626
-626
-626
-626
-626
-626
-626
-626
-216
135
-1513
-3643
-3084
-1841
-2432
-820
-626
-626
-626
-626
-626
-626
-626
-626
-626
-626
-626
-626
-626
-626
-626
-45
103
-2230
-63
1372
828
-2809
-813
337
-626
-626
-626
-626
-626
-626
-626
-626
-626
-626
-626
-626
-626
-122
175
-1871
-2046
723
5268
4083
-1312
-4507
-943
836
-626
-626
-626
-626
-626
-626
-626
-626
-626
-626
-626
-626
-45
79
-2408
180
3412
6116
1915
-3697
-6331
-3452
-190
20
-626
-626
-626
-626
-626
-626
-626
-626
-626
-626
-626
-45
59
-414
2222
5285
3519
-171
-5720
-5678
-3652
-236
-246
-573
-626
-626
-626
-626
-626
-626
-626
-626
-626
-626
-232
-23
657
4726
5256
473
-4358
-5235
-5228
-958
-1123
-193
-626
-626
-626
-626
-626
-626
-626
-626
-626
-626
-626
-626
-147
2741
5535
3293
-4716
-7493
-5560
-2580
-535
-123
-626
-626
-626
-626
-626
-626
-626
-626
-626
-626
-626
-626
-45
209
-359
2530
3139
-5034
-11885
-8913
-5433
-3402
-1606
-626
-626
-626
-626
-626
-626
-626
-626
-626
-626
-626
-626
-626
-777
-170
5501
6785
698
-7124
-2519
2841
-356
-4760
-5579
-3296
-1907
-626
-626
-626
-626
-626
-626
-626
-626
-626
-626
-626
2046
4603
7023
5323
-517
-2899
2040
4299
1974
252
-1002
-5528
-3354
-1907
-626
-626
-626
-626
-626
-626
-626
-626
-626
-626
1904
5546
1918
-4134
-7308
-2090
2442
3073
1485
1654
3407
-462
-3396
-5580
-3296
-1907
-626
-626
-626
-626
-626
-626
-626
-626
573
3606
119
-7109
-10233
-1999
-1392
29
2526
1038
-925
530
2421
-476
-5061
-3354
-1907
-626
-626
-626
-626
-626
-626
-626
2058
7386
2385
-4873
-6484
1098
-472
-737
-741
-62
114
1317
1324
742
-2666
-2704
-1965
-626
-626
-626
-626
-626
-626
-626
3960
8142
801
-6548
-6996
-522
-1907
-103
-1207
-647
-718
2825
722
-865
-2500
-1221
99
-626
-626
-626
-626
-626
-626
-626
2730
4125
-1407
-3982
-3558
-1787
-3354
-1907
-626
692
-248
432
-846
-4331
-8180
-2777
1694
-626
-626
-626
-626
-626
-626
-626
600
3089
1527
-2103
-1515
1441
-3241
-5396
-3257
-2038
-2880
2267
2236
-3702
-7907
-1698
1377
-626
-626
-626
-626
-626
-626
-626
-441
1595
2703
2179
-3255
81
3073
1234
-2973
-2082
1382
6085
-1128
-4975
-5683
679
74
-626
-626
-626
-626
-626
-626
-626
-626
111
205
1804
1461
-193
498
3169
4072
8510
6212
471
-5504
-3610
-3093
1068
-554
-626
-626
-626
-626
-626
-626
-626
-626
-626
111
205
-862
477
509
3007
4203
5266
-2181
-6520
-5045
-1123
-1282
-123
-626
-626
-626
-626
-626
-626
-626
-626
-626
-626
-626
111
-1745
-1584
-2086
-860
-1403
-3724
-6173
-4058
78
-123
-626
-626
-626
-626
-626
-626
-626
-626
-626
-626
-626
-626
-626
-626
-626
-112
-1185
-2583
-3754
-4490
-2482
-1282
-123
-626
-626
-626
-626
-626
-626
-626
-626
-626
-626
-626
-626
-626
-626
-626
-626
-626
-626
-626
-626
-626
-626
-626
-626
-626
-626
-626
-626
-626
-136
-136
-136
-136
-136
-136
-136
-136
-136
-136
-136
-136
-136
-136
-136
-136
-136
-136
-136
-136
-136
-136
-136
-136
-136
-136
-136
-136
-136
-136
-136
-136
-136
-136
-136
-136
-136
-136
-136
-136
-577
-3136
-3566
-3292
-4927
-2642
-136
-136
-136
-136
-136
-136
-136
-136
-136
-136
-136
-136
-136
-136
-136
-136
-447
-2383
-3265
-6307
-6580
-7514
-8413
-3117
-136
-136
-136
-136
-136
-136
-136
-136
-136
-136
-136
-136
-136
-136
-136
-577
-2793
-4567
-4572
-5569
-8060
-6677
-3456
-2223
-136
-136
-136
-136
-136
-136
-136
-136
-136
-136
-136
-136
-136
-518
-2795
-3405
-5368
-3444
-6076
-6395
-6188
-3785
-3338
-1298
-136
-136
-136
-136
-136
-136
-136
-136
-136
-136
-136
-136
-577
-2715
-4681
-3718
-6031
-6787
-6047
-4230
737
1005
753
-428
-136
-136
-136
-136
-136
-136
-136
-136
-136
-136
-136
-577
-2651
-3101
-1183
-5645
-6648
-5686
-1205
732
2640
1180
-101
-156
-136
-136
-136
-136
-136
-136
-136
-136
-136
-136
-435
-1828
-2583
-798
-5306
-7710
-4172
-79
2390
2698
1497
-299
-136
-136
-136
-136
-136
-136
-136
-136
-136
-136
-136
-136
-248
-1929
-1953
-4875
-9064
-4413
1218
2699
1254
-325
-136
-136
-136
-136
-136
-136
-136
-136
-136
-136
-136
-136
-577
-3136
-2310
-4894
-9954
-10952
-12075
-9590
-3630
-3911
-2696
-136
-136
-136
-136
-136
-136
-136
-136
-136
-136
-136
-136
-136
349
-1659
-1896
-2279
-7761
-5638
-4943
-11002
-10128
-12111
-8459
-4927
-2642
-136
-136
-136
-136
-136
-136
-136
-136
-136
-136
-136
1643
3170
-1882
3147
-1183
59
2855
-1795
-4714
-9003
-12162
-10600
-7642
-2642
-136
-136
-136
-136
-136
-136
-136
-136
-136
-136
-900
-1757
-5154
-4598
-5996
-5107
1247
729
696
-922
-8016
-8735
-13179
-8513
-4927
-2642
-136
-136
-136
-136
-136
-136
-136
-136
-360
-2126
-1056
-1606
-4851
-3508
4092
5135
5352
3447
-1296
-3944
-8775
-11364
-9686
-7642
-2642
-136
-136
-136
-136
-136
-136
-136
2019
367
-2673
-1155
-7375
-8406
-141
932
2610
5653
6095
2557
-3233
-7439
-7030
-12255
-5357
-136
-136
-136
-136
-136
-136
-136
1438
1656
-3474
-1591
-6545
-10600
-2642
-342
218
1701
4159
4929
-328
-3280
-6305
-9780
-5014
-136
-136
-136
-136
-136
-136
-136
-306
2257
1928
-1053
-4657
-11780
-7642
-2642
-136
-866
-2594
424
169
-1809
-6163
-7820
-3301
-136
-136
-136
-136
-136
-136
-136
-508
1801
6092
3247
-2177
-7967
-13297
-9283
-6111
-5939
-5733
-2958
-6754
-4991
-1100
-4072
-1557
-136
-136
-136
-136
-136
-136
-136
-209
-527
2230
5438
1017
-1839
-7573
-11074
-10874
-10299
-5066
-5710
-5550
-942
3131
-1069
-466
-136
-136
-136
-136
-136
-136
-136
-136
-425
152
3864
6534
4081
605
-1890
-1184
-4607
-5293
-6370
-3626
-1388
716
-990
-164
-136
-136
-136
-136
-136
-136
-136
-136
-136
-425
152
2079
4160
3032
562
1724
-1133
-1493
1202
1703
2997
1787
-325
-136
-136
-136
-136
-136
-136
-136
-136
-136
-136
-136
-425
481
2433
4278
3021
606
-890
1392
2558
816
-325
-136
-136
-136
-136
-136
-136
-136
-136
-136
-136
-136
-136
-136
-136
-136
-338
207
2004
4137
4932
3968
1787
-325
-136
-136
-136
-136
-136
-136
-136
-136
-136
-136
-136
-136
-136
-136
-136
-136
-136
-136
-136
-136
-136
-136
-136
-136
-136
-136
-136
-136
-136
482
482
482
482
482
482
482
482
482
482
482
482
482
482
482
482
482
482
482
482
482
482
482
482
482
482
482
482
482
482
482
482
482
482
482
482
482
482
482
482
-605
-1430
-2235
-5081
-6433
-2763
482
482
482
482
482
482
482
482
482
482
482
482
482
482
482
482
-286
-1187
-4011
-8487
-12691
-10150
-6677
-2803
482
482
482
482
482
482
482
482
482
482
482
482
482
482
482
-605
-2310
-6042
-12674
-17280
-15587
-8667
-4074
-516
482
482
482
482
482
482
482
482
482
482
482
482
482
-460
-1320
-4315
-9856
-17000
-14941
-10402
-4557
-1249
4720
3139
482
482
482
482
482
482
482
482
482
482
482
482
-605
-2510
-6071
-12887
-15523
-13183
-3863
4327
12553
11655
7867
3206
482
482
482
482
482
482
482
482
482
482
482
-605
-2676
-6878
-14146
-14485
-7939
2244
10739
15549
14065
7752
3126
739
482
482
482
482
482
482
482
482
482
482
-256
-2411
-6439
-11189
-10625
-4605
5043
15008
15425
11719
4623
2583
482
482
482
482
482
482
482
482
482
482
482
482
-1451
-5503
-8368
-7348
-3226
6496
15557
13300
6393
2917
482
482
482
482
482
482
482
482
482
482
482
482
-605
-1430
-5427
-11683
-13585
-8010
-2438
1256
1460
-2840
-1362
482
482
482
482
482
482
482
482
482
482
482
482
482
-765
-4151
-7006
-7182
-9115
-4927
-1534
-4279
-8438
-10437
-11209
-6433
-2763
482
482
482
482
482
482
482
482
482
482
482
-797
-5300
-4670
-2348
-1444
-4113
546
-4921
-11021
-11047
-11971
-10909
-9375
-2763
482
482
482
482
482
482
482
482
482
482
975
-987
-1319
2191
9225
8182
11162
4701
-2496
-6163
-7600
-10478
-10117
-11266
-6433
-2763
482
482
482
482
482
482
482
482
326
1670
2817
3058
6955
12341
17970
15870
10686
3779
-223
-5353
-6721
-10646
-9725
-9375
-2763
482
482
482
482
482
482
482
-2285
-3993
-4330
-3341
-4785
-537
3976
9445
14770
14011
9029
1153
-3223
-8139
-11164
-10645
-5704
482
482
482
482
482
482
482
523
-644
-2445
-525
-932
-4895
-2763
2038
5620
11788
13241
7750
131
-3470
-4969
-5642
-3617
482
482
482
482
482
482
482
3951
6750
3794
728
2640
-4126
-9375
-2763
482
1587
5366
7148
1887
-3875
-2298
111
2099
482
482
482
482
482
482
482
3074
7502
6143
-428
-1793
-3224
-10407
-11704
-8189
-7278
-6723
-8425
-3772
-38
5895
6157
5548
482
482
482
482
482
482
482
1032
5310
7539
2674
-1763
-1818
-6151
-10757
-11897
-16666
-17772
-11729
-2993
3864
8188
7270
3313
482
482
482
482
482
482
482
482
2674
8419
11094
5401
1471
57
-6414
-10097
-10479
-6999
53
4751
10562
8355
5934
835
482
482
482
482
482
482
482
482
482
2674
8419
12360
9551
6459
4281
1745
3880
6445
13098
15685
12370
4894
2917
482
482
482
482
482
482
482
482
482
482
482
2674
6825
12683
14503
14340
14008
16564
15687
12708
7624
2917
482
482
482
482
482
482
482
482
482
482
482
482
482
482
482
2012
5571
10137
12950
13055
9640
4894
2917
482
482
482
482
482
482
482
482
482
482
482
482
482
482
482
482
482
482
482
482
482
482
482
482
482
482
482
482
482
174
174
174
174
174
174
174
174
174
174
174
174
174
174
174
174
174
174
174
174
174
174
174
174
174
174
174
174
174
174
174
174
174
174
174
174
174
174
174
174
1759
4034
2158
465
1656
1073
174
174
174
174
174
174
174
174
174
174
174
174
174
174
174
174
1293
3365
6774
5924
561
1254
2539
1022
174
174
174
174
174
174
174
174
174
174
174
174
174
174
174
1759
6114
6642
4824
2980
5894
7430
3784
334
174
174
174
174
174
174
174
174
174
174
174
174
174
1548
3731
6728
5800
4103
6580
11268
10700
5472
-1619
-1666
174
174
174
174
174
174
174
174
174
174
174
174
1759
6587
6184
3945
4102
8829
14082
10187
1285
-5455
-3647
-183
174
174
174
174
174
174
174
174
174
174
174
1759
6980
5284
2666
6902
12322
12373
5789
-3268
-5780
-3568
-175
157
174
174
174
174
174
174
174
174
174
174
1249
6248
5368
2601
8474
14275
9174
295
-5542
-5307
-1522
35
174
174
174
174
174
174
174
174
174
174
174
174
3758
7073
5043
8011
13313
6122
-4197
-5726
-2780
13
174
174
174
174
174
174
174
174
174
174
174
174
1759
4034
6641
10319
11830
13539
9387
-1382
-3494
507
967
174
174
174
174
174
174
174
174
174
174
174
174
174
3119
4947
5733
7727
12214
10225
3467
856
4168
4414
2103
1656
1073
174
174
174
174
174
174
174
174
174
174
174
121
6315
8781
9796
10894
8029
5998
9045
10961
6671
3033
2508
2409
1073
174
174
174
174
174
174
174
174
174
174
3547
10549
10002
7740
6612
1531
2036
6062
7915
8932
7171
6696
4226
2118
1656
1073
174
174
174
174
174
174
174
174
5116
9499
3558
1349
2131
-2717
-816
618
2863
7459
9556
7792
4746
2822
2180
2409
1073
174
174
174
174
174
174
174
3467
9289
7797
4788
3062
28
637
1378
1319
1467
2445
7197
11388
5020
3143
3141
1826
174
174
174
174
174
174
174
2600
10400
12086
6099
153
481
1073
466
702
1110
849
7076
9825
4135
3467
3502
1138
174
174
174
174
174
174
174
2321
7676
9218
4269
416
-58
2409
1073
174
2172
5446
7654
5632
4346
6424
2389
-1484
174
174
174
174
174
174
174
1026
2904
5267
7170
5724
4153
4648
3042
3619
7977
5838
5092
6901
5766
2453
-2699
-1823
174
174
174
174
174
174
174
277
2380
3410
6088
7272
6311
4945
4948
8276
7207
2637
7810
12180
6552
-959
-3578
-255
174
174
174
174
174
174
174
174
586
2502
1941
1810
5950
7788
6492
6503
5206
8920
12751
7266
-2073
-4062
-2093
150
174
174
174
174
174
174
174
174
174
586
2502
2011
1930
3268
3930
6604
9569
9254
2804
-5483
-5576
-1766
13
174
174
174
174
174
174
174
174
174
174
174
586
749
11
-227
1368
3485
1915
-2273
-5759
-3614
13
174
174
174
174
174
174
174
174
174
174
174
174
174
174
174
461
700
-621
-2455
-3516
-3728
-1766
13
174
174
174
174
174
174
174
174
174
174
174
174
174
174
174
174
174
174
174
174
174
174
174
174
174
174
174
174
174
1372
1372
1372
1372
1372
1372
1372
1372
1372
1372
1372
1372
1372
1372
1372
1372
1372
1372
1372
1372
1372
1372
1372
1372
1372
1372
1372
1372
1372
1372
1372
1372
1372
1372
1372
1372
1372
1372
1372
1372
5118
8094
3724
-603
-204
1146
1372
1372
1372
1372
1372
1372
1372
1372
1372
1372
1372
1372
1372
1372
1372
1372
4016
7219
10060
4860
-2221
-2775
-1363
424
1372
1372
1372
1372
1372
1372
1372
1372
1372
1372
1372
1372
1372
1372
1372
5118
9792
8859
5482
56
-4967
-3930
-2739
-1611
1372
1372
1372
1372
1372
1372
1372
1372
1372
1372
1372
1372
1372
4618
7697
9959
6063
2616
-1169
-4276
-7080
-6174
-4708
801
1372
1372
1372
1372
1372
1372
1372
1372
1372
1372
1372
1372
5118
10179
7569
4378
166
-2646
-5322
-11790
-10426
-10067
-3424
-77
1372
1372
1372
1372
1372
1372
1372
1372
1372
1372
1372
5118
10500
7647
2179
-1344
-5130
-9431
-12048
-12289
-8348
-3388
-346
1221
1372
1372
1372
1372
1372
1372
1372
1372
1372
1372
3913
9543
8191
1887
-3376
-5750
-11540
-11387
-10925
-5629
-2466
146
1372
1372
1372
1372
1372
1372
1372
1372
1372
1372
1372
1372
6750
12590
6196
-6044
-9378
-12794
-12437
-7439
-2996
-49
1372
1372
1372
1372
1372
1372
1372
1372
1372
1372
1372
1372
5118
8094
11622
11472
1349
-4258
-7818
-11769
-6902
-3137
371
1372
1372
1372
1372
1372
1372
1372
1372
1372
1372
1372
1372
1372
3777
6810
7938
1793
-8326
-9579
-7573
-3600
2220
-35
-1733
-204
1146
1372
1372
1372
1372
1372
1372
1372
1372
1372
1372
1372
3989
10895
4197
-2904
-9385
-9465
-5618
-1061
1944
1113
-3490
-3129
-1128
1146
1372
1372
1372
1372
1372
1372
1372
1372
1372
1372
5714
12474
1370
-11574
-11138
-11878
-4358
-636
375
165
-478
1277
-2878
-1751
-204
1146
1372
1372
1372
1372
1372
1372
1372
1372
6293
9567
-4758
-15211
-16173
-13253
-8905
-6765
-4636
-3508
-2576
-1078
1363
-3054
-3047
-1128
1146
1372
1372
1372
1372
1372
1372
1372
7298
10187
-2574
-8210
-11155
-4743
-551
-2509
-6045
-5298
-5363
272
2956
-4326
-6460
-5456
223
1372
1372
1372
1372
1372
1372
1372
5102
8804
1557
-6726
-11309
-5698
1146
476
-1386
-3498
-5048
2741
182
-7606
-9394
-4715
-2469
1372
1372
1372
1372
1372
1372
1372
1324
2581
231
-5364
-7054
-7540
-1128
1146
1372
3857
5109
6279
-3338
-13660
-12269
-7619
-1912
1372
1372
1372
1372
1372
1372
1372
253
852
798
-1891
-3511
247
-1879
-208
3971
9790
4853
1196
-7446
-12348
-11388
-9859
-732
1372
1372
1372
1372
1372
1372
1372
1055
149
514
1800
-5263
-2610
1320
1638
6141
4962
245
-2820
-7575
-11022
-10390
-6423
-87
1372
1372
1372
1372
1372
1372
1372
1372
110
-1431
-1668
-2705
-3767
-2499
-2737
27
-2006
-5262
-6758
-9718
-8669
-5143
-720
1165
1372
1372
1372
1372
1372
1372
1372
1372
1372
110
-1431
-4241
-3677
-4205
-2356
-862
-5510
-9863
-11450
-12515
-6028
-2851
-49
1372
1372
1372
1372
1372
1372
1372
1372
1372
1372
1372
110
-1998
-4515
-7030
-7546
-8475
-9545
-8306
-7806
-3116
-49
1372
1372
1372
1372
1372
1372
1372
1372
1372
1372
1372
1372
1372
1372
1372
491
-1362
-4031
-6867
-7443
-5764
-2851
-49
1372
1372
1372
1372
1372
1372
1372
1372
1372
1372
1372
1372
1372
1372
1372
1372
1372
1372
1372
1372
1372
1372
1372
1372
1372
1372
1372
1372
1372
1051
1051
1051
1051
1051
1051
1051
1051
1051
1051
1051
1051
1051
1051
1051
1051
1051
1051
1051
1051
1051
1051
1051
1051
1051
1051
1051
1051
1051
1051
1051
1051
1051
1051
1051
1051
1051
1051
1051
1051
-40
-2335
-3354
-1707
-435
213
1051
1051
1051
1051
1051
1051
1051
1051
1051
1051
1051
1051
1051
1051
1051
1051
281
-1660
-4157
-5655
-3894
-1706
-1374
534
1051
1051
1051
1051
1051
1051
1051
1051
1051
1051
1051
1051
1051
1051
1051
-40
-2570
-5613
-8105
-8570
-5572
-5679
-3891
-1192
1051
1051
1051
1051
1051
1051
1051
1051
1051
1051
1051
1051
1051
105
-2029
-4496
-7564
-7807
-7495
-7160
-9025
-6617
-1919
1714
1051
1051
1051
1051
1051
1051
1051
1051
1051
1051
1051
1051
-40
-2624
-5495
-7378
-7366
-7579
-9222
-9219
-2634
-1138
2675
2890
1051
1051
1051
1051
1051
1051
1051
1051
1051
1051
1051
-40
-2668
-7440
-7208
-7426
-8212
-8486
-6521
-923
2456
2835
2703
1235
1051
1051
1051
1051
1051
1051
1051
1051
1051
1051
311
-1930
-7124
-6171
-6585
-9345
-8833
-2852
831
3896
2049
2555
1051
1051
1051
1051
1051
1051
1051
1051
1051
1051
1051
1051
-266
-6335
-7911
-7648
-8510
-6948
-533
3046
2422
2795
1051
1051
1051
1051
1051
1051
1051
1051
1051
1051
1051
1051
-40
-2335
-6623
-9549
-11973
-13318
-11960
-6851
-46
847
1187
1051
1051
1051
1051
1051
1051
1051
1051
1051
1051
1051
1051
1051
718
-1768
-4994
-9277
-8692
-7449
-8808
-6262
-4380
-5761
-2963
-435
213
1051
1051
1051
1051
1051
1051
1051
1051
1051
1051
1051
-1683
-4558
-9082
-10469
-11882
-13171
-10735
-6898
-10343
-10766
-7443
-3819
-862
213
1051
1051
1051
1051
1051
1051
1051
1051
1051
1051
923
-5725
-9107
-6992
-3241
-4972
-3342
-5342
-9150
-8869
-10274
-10195
-7717
-2972
-435
213
1051
1051
1051
1051
1051
1051
1051
1051
-1783
-5878
-6264
-5964
-3540
863
3716
1842
-2588
-7835
-6397
-9110
-9009
-7250
-3514
-862
213
1051
1051
1051
1051
1051
1051
1051
-2265
-6928
-6826
-6762
-8013
-203
91
2081
2028
-603
-4631
-8446
-8774
-10878
-7301
-4150
-215
1051
1051
1051
1051
1051
1051
1051
-802
-6564
-8612
-9506
-8686
-419
213
73
619
2853
1665
-3699
-11311
-7302
-6807
-4901
-1696
1051
1051
1051
1051
1051
1051
1051
-43
-2729
-3718
-8814
-6814
-2781
-862
213
1051
-1418
-2072
-5889
-8634
-7405
-7515
-3566
-312
1051
1051
1051
1051
1051
1051
1051
-84
-1071
-2462
-6705
-8512
-7251
-8008
-3802
-2547
-4100
-6124
-6343
-4828
-4171
-4854
-1553
3372
1051
1051
1051
1051
1051
1051
1051
705
975
-347
-4927
-7492
-4684
-7677
-7919
-7015
-9745
-8311
-8529
-8524
-5016
-4515
421
2925
1051
1051
1051
1051
1051
1051
1051
1051
-327
1973
582
-5242
-7409
-5707
-7369
-9414
-8125
-5609
-8216
-6491
-1542
-36
3566
1304
1051
1051
1051
1051
1051
1051
1051
1051
1051
-327
1973
3303
-2016
-5481
-4874
-7091
-7843
-8243
-4631
23
4067
1930
2795
1051
1051
1051
1051
1051
1051
1051
1051
1051
1051
1051
-327
1006
2921
2460
2076
-1395
-552
2155
1236
2827
2795
1051
1051
1051
1051
1051
1051
1051
1051
1051
1051
1051
1051
1051
1051
1051
89
603
1871
1642
3976
3170
1930
2795
1051
1051
1051
1051
1051
1051
1051
1051
1051
1051
1051
1051
1051
1051
1051
1051
1051
1051
1051
1051
1051
1051
1051
1051
1051
1051
1051
1051
1051
229
229
229
229
229
229
229
229
229
229
229
229
229
229
229
229
229
229
229
229
229
229
229
229
229
229
229
229
229
229
229
229
229
229
229
229
229
229
229
229
2358
5540
5979
4753
1340
-615
229
229
229
229
229
229
229
229
229
229
229
229
229
229
229
229
1732
4604
6085
9787
10879
3544
1181
2711
229
229
229
229
229
229
229
229
229
229
229
229
229
229
229
2358
4645
8998
13621
10599
6477
3892
3279
258
229
229
229
229
229
229
229
229
229
229
229
229
229
2074
5115
6498
11191
10910
9439
6974
3704
306
-2013
-419
229
229
229
229
229
229
229
229
229
229
229
229
2358
4441
8888
13091
10129
8666
4814
3380
-3868
-4039
-3343
-1313
229
229
229
229
229
229
229
229
229
229
229
2358
4272
9797
11978
8618
6623
4762
-181
-5500
-4605
-3156
-1386
72
229
229
229
229
229
229
229
229
229
229
1673
3249
9219
12436
7151
4321
2567
-3555
-4520
-3620
-2385
-1044
229
229
229
229
229
229
229
229
229
229
229
229
1498
8490
13422
10477
4522
-230
-5356
-4295
-2908
-1247
229
229
229
229
229
229
229
229
229
229
229
229
2358
5540
8105
14383
18665
12917
7694
5000
168
-898
-1409
229
229
229
229
229
229
229
229
229
229
229
229
229
-1040
4561
10736
10431
10179
5500
6964
10592
11693
9278
6431
1340
-615
229
229
229
229
229
229
229
229
229
229
229
2117
2614
11178
11462
3235
1000
-656
4641
11643
14138
11632
5743
3912
-615
229
229
229
229
229
229
229
229
229
229
2852
7591
9975
7906
-2218
-1629
-2939
-2772
1343
6613
12869
12448
9280
6481
1340
-615
229
229
229
229
229
229
229
229
2003
10178
12479
5174
-940
-1976
-2223
-1587
-1942
-3328
74
8809
11789
10914
6050
3912
-615
229
229
229
229
229
229
229
1365
8255
11796
5760
1352
-104
861
501
534
-618
-3588
-694
7304
13654
8154
2686
1957
229
229
229
229
229
229
229
2293
5743
9673
7725
1575
1572
-615
861
535
450
194
184
3395
6376
4746
1218
2435
229
229
229
229
229
229
229
2096
2212
2748
9080
3794
4002
3912
-615
229
3249
5684
9366
11212
4210
-2434
-1164
-263
229
229
229
229
229
229
229
1247
2896
-331
2228
10004
8526
9848
7755
4791
4463
8801
12651
8075
3257
-2364
-2204
-1904
229
229
229
229
229
229
229
452
1422
2558
-916
-869
5765
9604
12265
11266
14304
12309
8411
4025
2309
-2730
-3644
-1337
229
229
229
229
229
229
229
229
1119
805
2184
-636
-3198
436
6367
7475
9732
7607
5067
655
-4260
-3365
-2060
14
229
229
229
229
229
229
229
229
229
1119
805
320
-312
-2826
-1775
2181
3181
1558
-2646
-4743
-3688
-2567
-1247
229
229
229
229
229
229
229
229
229
229
229
1119
296
152
-1036
-2696
-3018
-4060
-5274
-3972
-3188
-1247
229
229
229
229
229
229
229
229
229
229
229
229
229
229
229
850
545
-53
-1125
-3444
-3067
-2567
-1247
229
229
229
229
229
229
229
229
229
229
229
229
229
229
229
229
229
229
229
229
229
229
229
229
229
229
229
229
229
680
680
680
680
680
680
680
680
680
680
680
680
680
680
680
680
680
680
680
680
680
680
680
680
680
680
680
680
680
680
680
680
680
680
680
680
680
680
680
680
1512
-943
-3573
709
2761
935
680
680
680
680
680
680
680
680
680
680
680
680
680
680
680
680
1267
-221
-4305
-5030
1713
4012
2447
2409
680
680
680
680
680
680
680
680
680
680
680
680
680
680
680
1512
-2421
-5471
-3277
-671
3561
4897
5362
2033
680
680
680
680
680
680
680
680
680
680
680
680
680
1401
-616
-4594
-5052
-1633
-591
2659
6027
5333
4149
2493
680
680
680
680
680
680
680
680
680
680
680
680
1512
-2758
-5852
-2214
-1451
1783
-215
4828
2699
1777
1097
-395
680
680
680
680
680
680
680
680
680
680
680
1512
-3037
-6687
-1543
-256
1122
2718
2337
1279
-169
618
-580
547
680
680
680
680
680
680
680
680
680
680
1244
-2247
-6152
-3114
1344
524
4920
681
1231
-603
-628
-402
680
680
680
680
680
680
680
680
680
680
680
680
92
-3861
-7680
-1756
3692
2673
1562
-473
291
-574
680
680
680
680
680
680
680
680
680
680
680
680
1512
-943
-5052
-7660
-4054
1485
213
1417
319
1438
242
680
680
680
680
680
680
680
680
680
680
680
680
680
-1414
-1323
-4553
-8132
213
1790
3688
2457
-312
-340
2633
2761
935
680
680
680
680
680
680
680
680
680
680
680
368
-3084
-7749
-2186
2654
1300
733
994
2285
2001
2018
2209
4464
935
680
680
680
680
680
680
680
680
680
680
-643
-4293
-9519
259
2942
2588
-731
-1365
-1404
2767
5183
2931
746
2667
2761
935
680
680
680
680
680
680
680
680
-2420
-8336
-7427
-1567
1038
-484
-6352
-4049
-5478
-2918
-1513
5074
3848
1375
2116
4464
935
680
680
680
680
680
680
680
-1552
-8363
-1701
1038
7279
3671
-1232
-3515
-4615
-3411
-4569
-2693
-1967
2727
5759
5254
2637
680
680
680
680
680
680
680
-2320
-6004
-2117
-1183
5798
6073
935
-623
-1329
-4893
-2501
-5950
-6898
-590
8698
7229
3592
680
680
680
680
680
680
680
-3367
-5281
-4588
-644
796
3638
4464
935
680
-323
-3922
-10928
-8382
-1065
4625
6450
3789
680
680
680
680
680
680
680
-1690
-3550
-4926
-5030
2145
2159
968
2178
2624
-2654
-6633
-4790
-2354
3253
1713
4608
1286
680
680
680
680
680
680
680
219
-3347
-1294
-4932
-3950
3584
4651
1503
-1901
-2760
-215
-1164
1379
3768
2217
2286
-328
680
680
680
680
680
680
680
680
-1155
-3531
-2732
-2886
-3837
-836
3828
1841
-242
1922
1624
6043
1679
2341
1107
498
680
680
680
680
680
680
680
680
680
-1155
-3531
-2410
-2767
-1726
-921
261
808
3682
136
1726
-866
-636
-574
680
680
680
680
680
680
680
680
680
680
680
-1155
-1400
-4807
-3326
-4133
-3985
-573
-46
547
1053
-574
680
680
680
680
680
680
680
680
680
680
680
680
680
680
680
-601
-1326
-2740
-3364
-2422
-2556
-636
-574
680
680
680
680
680
680
680
680
680
680
680
680
680
680
680
680
680
680
680
680
680
680
680
680
680
680
680
680
680
482
482
482
482
482
482
482
482
482
482
482
482
482
482
482
482
482
482
482
482
482
482
482
482
482
482
482
482
482
482
482
482
482
482
482
482
482
482
482
482
412
809
-571
-1340
-1936
-1564
482
482
482
482
482
482
482
482
482
482
482
482
482
482
482
482
432
692
-1760
-968
-3587
-4521
-4503
-2467
482
482
482
482
482
482
482
482
482
482
482
482
482
482
482
412
-282
-1176
-4389
-5455
-4784
-5093
-6179
-2262
482
482
482
482
482
482
482
482
482
482
482
482
482
421
756
-1994
-2196
-6588
-3553
-6808
-5442
-5639
-2207
52
482
482
482
482
482
482
482
482
482
482
482
482
412
-531
-925
-4877
-4739
-6994
-2606
-3045
-610
2503
3876
1155
482
482
482
482
482
482
482
482
482
482
482
412
-737
-2142
-4245
-3872
-4978
-3039
-1431
2869
5246
4033
1476
555
482
482
482
482
482
482
482
482
482
482
434
-865
-1898
-3054
-3721
-3697
-3296
1330
4473
5038
3643
1078
482
482
482
482
482
482
482
482
482
482
482
482
-637
-1440
-1653
-1458
-2359
-4280
3161
5182
3943
1173
482
482
482
482
482
482
482
482
482
482
482
482
412
809
-3318
-2273
-1674
-3335
-5352
-3280
773
334
-1145
482
482
482
482
482
482
482
482
482
482
482
482
482
-1064
285
-3059
-3280
-1504
-4766
-4438
-2488
-5186
-4481
-6065
-1936
-1564
482
482
482
482
482
482
482
482
482
482
482
-1186
-2271
3234
-2936
-2738
-5683
-1601
-2493
-4889
-5972
-8405
-5692
-4668
-1564
482
482
482
482
482
482
482
482
482
482
570
-2884
2492
-198
-1448
-3655
1928
-1585
-974
-2319
-3445
-8923
-6297
-6119
-1936
-1564
482
482
482
482
482
482
482
482
515
2255
2859
4249
1738
1104
8383
5067
3579
1187
1180
-4334
-4783
-8318
-4946
-4668
-1564
482
482
482
482
482
482
482
-2746
1080
1695
-2830
-4263
-5706
2585
4089
5493
4125
3084
2498
368
-4768
-8625
-7290
-4297
482
482
482
482
482
482
482
-1377
-732
3676
-2092
-3313
-6601
-1564
1666
3135
4678
4182
1601
2703
-391
-4289
-8598
-5002
482
482
482
482
482
482
482
1908
-40
3054
4670
-1601
-6172
-4668
-1564
482
2080
3805
616
4036
98
243
-7620
-2539
482
482
482
482
482
482
482
2194
1878
-140
5814
2895
-6461
-6316
-6027
-2313
-3172
-873
-3442
425
-2945
571
-1442
647
482
482
482
482
482
482
482
900
2675
47
-828
4766
-2017
-4815
-7752
-5666
-7394
-6121
-3478
-2203
-2746
865
1425
1148
482
482
482
482
482
482
482
482
2150
3714
1064
2862
2665
-52
-4713
-7288
-6089
-4683
-2325
-5035
-294
3516
1419
582
482
482
482
482
482
482
482
482
482
2150
3714
2731
3017
2173
330
-936
-356
-314
1015
3556
5225
4036
1173
482
482
482
482
482
482
482
482
482
482
482
2150
3538
5019
6242
5583
5883
4536
3879
4762
3866
1173
482
482
482
482
482
482
482
482
482
482
482
482
482
482
482
1646
3119
4486
6895
6573
5394
4036
1173
482
482
482
482
482
482
482
482
482
482
482
482
482
482
482
482
482
482
482
482
482
482
482
482
482
482
482
482
482
352
352
352
352
352
352
352
352
352
352
352
352
352
352
352
352
352
352
352
352
352
352
352
352
352
352
352
352
352
352
352
352
352
352
352
352
352
352
352
352
-2008
-1436
301
3300
6513
2942
352
352
352
352
352
352
352
352
352
352
352
352
352
352
352
352
-1314
-1605
-1364
4089
10192
14368
8361
1742
352
352
352
352
352
352
352
352
352
352
352
352
352
352
352
-2008
-1075
-514
7156
16337
19345
8363
-2039
-2771
352
352
352
352
352
352
352
352
352
352
352
352
352
-1694
-1513
-1464
4224
12492
20976
20116
2663
-8132
-8612
-2926
352
352
352
352
352
352
352
352
352
352
352
352
-2008
-993
388
7619
18830
21535
12091
-5346
-13237
-9790
-3514
-790
352
352
352
352
352
352
352
352
352
352
352
-2008
-924
972
10650
20821
18311
1354
-9195
-13308
-6977
-2990
-459
264
352
352
352
352
352
352
352
352
352
352
-1249
-1108
1042
11802
22025
11689
-6353
-14408
-9096
-4584
-318
-365
352
352
352
352
352
352
352
352
352
352
352
352
-1661
-1219
8990
18560
10852
-7084
-12282
-6181
-1903
-479
352
352
352
352
352
352
352
352
352
352
352
352
-2008
-1436
-2209
6872
17283
10465
-2050
-3111
1461
5715
2435
352
352
352
352
352
352
352
352
352
352
352
352
352
863
-491
7115
14945
17830
6008
-1301
1573
7190
9648
6986
6513
2942
352
352
352
352
352
352
352
352
352
352
352
-652
1046
7365
10111
5098
-3250
-5222
-1803
2196
3489
8696
10179
7630
2942
352
352
352
352
352
352
352
352
352
352
435
2874
5942
5969
3662
-4675
-4015
-3553
-3614
-444
546
2732
5672
7007
6513
2942
352
352
352
352
352
352
352
352
-2280
80
8075
6405
4396
-5072
-187
574
679
-767
-4303
-3935
418
7330
9234
7630
2942
352
352
352
352
352
352
352
-676
3880
11836
4340
3127
-3189
-650
85
1422
-308
-1670
-5976
-1198
795
7684
8313
4059
352
352
352
352
352
352
352
1932
5274
3741
-1606
-1892
624
2942
-196
-939
169
2421
-1342
980
-30
5500
1644
-1396
352
352
352
352
352
352
352
1772
4029
377
-2627
432
1335
7630
2942
352
-2780
-2058
-2281
9440
11106
4131
-5776
-5661
352
352
352
352
352
352
352
191
893
2688
-967
-218
-1826
5042
6688
4102
2494
2880
10045
21604
10603
-2704
-8165
-3884
352
352
352
352
352
352
352
158
1833
3013
1284
724
-1950
596
4297
7253
9183
14702
20036
12755
-6553
-8327
-6861
-905
352
352
352
352
352
352
352
352
-420
1286
1834
912
-2034
-1353
-462
4674
11806
17598
6077
-6725
-13118
-5406
-3387
231
352
352
352
352
352
352
352
352
352
-420
1286
2810
133
-1471
-4706
-120
1663
-5993
-12865
-10657
-4800
-292
-479
352
352
352
352
352
352
352
352
352
352
352
-420
-1152
-1024
2089
514
-1676
-7600
-10702
-6852
-3226
-479
352
352
352
352
352
352
352
352
352
352
352
352
352
352
352
-187
-931
-2250
-2595
-2346
-1866
-292
-479
352
352
352
352
352
352
352
352
352
352
352
352
352
352
352
352
352
352
352
352
352
352
352
352
352
352
352
352
352
-712
-712
-712
-712
-712
-712
-712
-712
-712
-712
-712
-712
-712
-712
-712
-712
-712
-712
-712
-712
-712
-712
-712
-712
-712
-712
-712
-712
-712
-712
-712
-712
-712
-712
-712
-712
-712
-712
-712
-712
606
1635
3717
2556
-1640
-1507
-712
-712
-712
-712
-712
-712
-712
-712
-712
-712
-712
-712
-712
-712
-712
-712
218
1333
5971
6030
6386
7247
5095
1243
-712
-712
-712
-712
-712
-712
-712
-712
-712
-712
-712
-712
-712
-712
-712
606
3001
7024
6494
6220
5602
6029
3465
-1229
-712
-712
-712
-712
-712
-712
-712
-712
-712
-712
-712
-712
-712
430
1498
6518
4454
5259
2986
5236
-310
-53
695
246
-712
-712
-712
-712
-712
-712
-712
-712
-712
-712
-712
-712
606
3313
6664
6806
5691
2816
-569
-5236
-4380
-3343
-1060
-1180
-712
-712
-712
-712
-712
-712
-712
-712
-712
-712
-712
606
3571
4246
5214
2561
3617
-3393
-5772
-6235
-2912
-1571
-1384
-774
-712
-712
-712
-712
-712
-712
-712
-712
-712
-712
182
3240
2886
4098
1554
-1226
-4475
-5942
-3048
-3419
-2063
-1210
-712
-712
-712
-712
-712
-712
-712
-712
-712
-712
-712
-712
1919
1791
3948
3662
-2336
-5447
-5169
-3236
-1617
-1289
-712
-712
-712
-712
-712
-712
-712
-712
-712
-712
-712
-712
606
1635
5611
4642
2898
5162
6315
2251
-187
-2706
-1808
-712
-712
-712
-712
-712
-712
-712
-712
-712
-712
-712
-712
-712
1223
2873
4536
7974
3203
6345
13405
12425
14907
9862
3761
-1640
-1507
-712
-712
-712
-712
-712
-712
-712
-712
-712
-712
-712
-2702
-237
-5022
653
-6912
-7772
-1165
3079
8689
15153
13472
8608
400
-1507
-712
-712
-712
-712
-712
-712
-712
-712
-712
-712
639
-405
-3439
-1670
-1107
-7836
-7918
-6783
-4016
6925
9842
16663
9469
3801
-1640
-1507
-712
-712
-712
-712
-712
-712
-712
-712
1138
177
854
476
2379
-4986
-7123
-9613
-12429
-8639
-1147
8939
14356
13506
8897
400
-1507
-712
-712
-712
-712
-712
-712
-712
-451
-1053
309
5560
7191
-173
-2200
-3252
-6744
-11150
-11713
-5407
6183
10275
13439
4244
533
-712
-712
-712
-712
-712
-712
-712
-2238
-3525
-5569
4025
10281
127
-1507
-1692
-2335
-4291
-6883
-8958
-6436
3071
10140
7778
480
-712
-712
-712
-712
-712
-712
-712
-2586
-4675
-6762
-1545
14859
8899
400
-1507
-712
-774
69
-34
-5297
-5848
404
4160
-113
-712
-712
-712
-712
-712
-712
-712
-2091
-4927
-7375
-6612
5948
15674
9820
4339
792
3421
5112
5059
1382
-1519
1673
1356
-360
-712
-712
-712
-712
-712
-712
-712
-1059
-2169
-5693
-9802
-4807
8129
13387
14319
14615
7342
4712
985
745
-5598
-2147
-1758
-1139
-712
-712
-712
-712
-712
-712
-712
-712
-2093
-2424
-7663
-12409
-8160
1837
4398
7658
6294
5275
-626
-2294
-5701
-148
-383
-796
-712
-712
-712
-712
-712
-712
-712
-712
-712
-2093
-2424
-5658
-11007
-9263
-7504
-3235
-4388
-7705
-5747
-3425
-3780
-2186
-1289
-712
-712
-712
-712
-712
-712
-712
-712
-712
-712
-712
-2093
-2434
-5057
-6324
-9527
-9109
-7579
-5523
-2467
-1150
-1289
-712
-712
-712
-712
-712
-712
-712
-712
-712
-712
-712
-712
-712
-712
-712
-1676
-2331
-4270
-5690
-4983
-4816
-2186
-1289
-712
-712
-712
-712
-712
-712
-712
-712
-712
-712
-712
-712
-712
-712
-712
-712
-712
-712
-712
-712
-712
-712
-712
-712
-712
-712
-712
-712
-712
1273
1273
1273
1273
1273
1273
1273
1273
1273
1273
1273
1273
1273
1273
1273
1273
1273
1273
1273
1273
1273
1273
1273
1273
1273
1273
1273
1273
1273
1273
1273
1273
1273
1273
1273
1273
1273
1273
1273
1273
2687
2237
1805
2566
1972
1661
1273
1273
1273
1273
1273
1273
1273
1273
1273
1273
1273
1273
1273
1273
1273
1273
2271
2369
4706
4705
4233
3082
3736
3035
1273
1273
1273
1273
1273
1273
1273
1273
1273
1273
1273
1273
1273
1273
1273
2687
3490
5334
6855
7621
4677
617
-2253
-1556
1273
1273
1273
1273
1273
1273
1273
1273
1273
1273
1273
1273
1273
2498
2297
4864
5779
8444
3631
-2160
-6782
-7938
-8566
-2143
1273
1273
1273
1273
1273
1273
1273
1273
1273
1273
1273
1273
2687
3775
5011
7107
5514
1654
-7215
-14970
-14314
-7152
1640
3369
1273
1273
1273
1273
1273
1273
1273
1273
1273
1273
1273
2687
4012
5777
7757
3260
-4308
-13144
-15695
-11899
-2415
2387
3846
1529
1273
1273
1273
1273
1273
1273
1273
1273
1273
1273
2232
4157
5683
4812
-846
-7737
-15020
-15471
-8014
1618
4913
3364
1273
1273
1273
1273
1273
1273
1273
1273
1273
1273
1273
1273
3891
6187
3617
-3268
-9878
-13624
-10887
-684
3406
3697
1273
1273
1273
1273
1273
1273
1273
1273
1273
1273
1273
1273
2687
2237
6123
6240
-1372
-6700
-7563
-5682
3423
5164
2984
1273
1273
1273
1273
1273
1273
1273
1273
1273
1273
1273
1273
1273
3048
5217
4104
2294
-1371
-2722
-2148
3739
8456
4274
4642
1972
1661
1273
1273
1273
1273
1273
1273
1273
1273
1273
1273
1273
2953
7403
7
-6235
-8847
-4056
-3451
-509
-416
0
1801
4884
3693
1661
1273
1273
1273
1273
1273
1273
1273
1273
1273
1273
353
209
-5433
-12675
-16630
-12051
-6681
-3842
-3406
-3582
-5247
167
1147
4676
1972
1661
1273
1273
1273
1273
1273
1273
1273
1273
2509
-202
-3348
-2464
-2694
-4377
-2935
-2493
-1172
-212
-2920
-6082
-4040
1629
4742
3693
1661
1273
1273
1273
1273
1273
1273
1273
5038
3687
-2506
-2097
-3675
-920
-1428
-4834
-7602
-4447
776
3142
-981
-5856
-1114
1003
3382
1273
1273
1273
1273
1273
1273
1273
1004
123
-3672
-6298
-7110
9
1661
-127
-2346
-5697
-5292
1897
1679
-2680
-7969
-4629
39
1273
1273
1273
1273
1273
1273
1273
-2637
-4735
-1441
-2100
-2967
925
3693
1661
1273
715
-2729
-1461
-1345
1440
-3140
-6014
-4586
1273
1273
1273
1273
1273
1273
1273
-1291
-4494
-362
3907
139
-1727
1524
4839
3558
4680
3951
2496
-4733
-3685
-2847
-3100
163
1273
1273
1273
1273
1273
1273
1273
778
-3637
-4973
936
941
-1792
-3770
3195
7588
8525
7680
861
-6018
-8460
-7052
-1508
3248
1273
1273
1273
1273
1273
1273
1273
1273
-700
-5374
-5314
217
3129
-1966
-4257
1129
1043
-2440
-9859
-13376
-10843
-3781
805
1624
1273
1273
1273
1273
1273
1273
1273
1273
1273
-700
-5374
-6977
-3923
-1410
-3667
-8257
-14494
-15617
-14701
-9691
1555
5106
3697
1273
1273
1273
1273
1273
1273
1273
1273
1273
1273
1273
-700
-3020
-5118
-5151
-3119
-7200
-10920
-8997
-3875
2010
3697
1273
1273
1273
1273
1273
1273
1273
1273
1273
1273
1273
1273
1273
1273
1273
-104
-2319
-3337
-2490
1600
4652
5106
3697
1273
1273
1273
1273
1273
1273
1273
1273
1273
1273
1273
1273
1273
1273
1273
1273
1273
1273
1273
1273
1273
1273
1273
1273
1273
1273
1273
1273
1273
-1542
-1542
-1542
-1542
-1542
-1542
-1542
-1542
-1542
-1542
-1542
-1542
-1542
-1542
-1542
-1542
-1542
-1542
-1542
-1542
-1542
-1542
-1542
-1542
-1542
-1542
-1542
-1542
-1542
-1542
-1542
-1542
-1542
-1542
-1542
-1542
-1542
-1542
-1542
-1542
-812
489
1505
3620
3314
-102
-1542
-1542
-1542
-1542
-1542
-1542
-1542
-1542
-1542
-1542
-1542
-1542
-1542
-1542
-1542
-1542
-1027
106
-37
1919
8427
12474
7338
683
-1542
-1542
-1542
-1542
-1542
-1542
-1542
-1542
-1542
-1542
-1542
-1542
-1542
-1542
-1542
-812
-752
153
6259
13055
13590
11165
8859
2403
-1542
-1542
-1542
-1542
-1542
-1542
-1542
-1542
-1542
-1542
-1542
-1542
-1542
-910
315
244
2948
8108
12401
9734
6570
5828
2788
-502
-1542
-1542
-1542
-1542
-1542
-1542
-1542
-1542
-1542
-1542
-1542
-1542
-812
-1035
-127
6489
12951
10539
2126
-1962
2500
4014
447
-2043
-1542
-1542
-1542
-1542
-1542
-1542
-1542
-1542
-1542
-1542
-1542
-812
-1270
113
7482
12483
6686
462
-2150
781
487
449
-1903
-1603
-1542
-1542
-1542
-1542
-1542
-1542
-1542
-1542
-1542
-1542
-1047
-1688
-343
6737
9060
2358
-1923
-1237
1735
833
-418
-2033
-1542
-1542
-1542
-1542
-1542
-1542
-1542
-1542
-1542
-1542
-1542
-1542
-2005
-696
4340
4446
3682
1288
1997
703
205
-2111
-1542
-1542
-1542
-1542
-1542
-1542
-1542
-1542
-1542
-1542
-1542
-1542
-812
489
1012
3892
3791
8939
15594
13837
7279
3756
-443
-1542
-1542
-1542
-1542
-1542
-1542
-1542
-1542
-1542
-1542
-1542
-1542
-1542
-3301
-2887
1916
2036
1959
9903
18719
17539
13708
12353
7093
3314
-102
-1542
-1542
-1542
-1542
-1542
-1542
-1542
-1542
-1542
-1542
-1542
-745
-1321
-2466
1070
9666
9862
7261
6352
11271
18755
18631
11721
5387
-102
-1542
-1542
-1542
-1542
-1542
-1542
-1542
-1542
-1542
-1542
-1608
-4449
-7381
-3489
5782
2772
-4730
-6845
-2645
5694
16020
20479
15726
7133
3314
-102
-1542
-1542
-1542
-1542
-1542
-1542
-1542
-1542
-5924
-6429
-2061
8294
10957
3021
-6331
-5177
-4508
-5979
-2253
8316
18193
17458
11196
5387
-102
-1542
-1542
-1542
-1542
-1542
-1542
-1542
-2338
-5502
-520
12653
18610
4719
-5376
-6832
-8438
-5274
-4390
-1905
3800
15223
21109
14119
1971
-1542
-1542
-1542
-1542
-1542
-1542
-1542
-2009
-8761
-4910
8904
19073
9190
-102
-3929
-5969
-6903
-4894
-5275
-4877
3929
16641
15916
4466
-1542
-1542
-1542
-1542
-1542
-1542
-1542
-5482
-11226
-8501
5204
17053
14502
5387
-102
-1542
-4175
-4779
-5107
2185
6414
12436
10100
3130
-1542
-1542
-1542
-1542
-1542
-1542
-1542
-5100
-7191
-6801
-2047
9191
19085
15920
7626
4770
1431
-602
1972
3832
5869
9835
6414
-925
-1542
-1542
-1542
-1542
-1542
-1542
-1542
-2386
-6057
-6119
-6107
-3663
4433
16729
16045
10935
8842
11441
9444
3088
4881
7935
4154
-2018
-1542
-1542
-1542
-1542
-1542
-1542
-1542
-1542
-4905
-7179
-5828
-2879
-2453
705
7768
12494
13813
7425
1069
977
950
605
-1181
-1625
-1542
-1542
-1542
-1542
-1542
-1542
-1542
-1542
-1542
-4905
-7179
-6617
-4338
-4651
-3516
727
-1684
-3557
-293
3210
886
-149
-2111
-1542
-1542
-1542
-1542
-1542
-1542
-1542
-1542
-1542
-1542
-1542
-4905
-6404
-6556
-4588
-6006
-9735
-11316
-3971
869
497
-2111
-1542
-1542
-1542
-1542
-1542
-1542
-1542
-1542
-1542
-1542
-1542
-1542
-1542
-1542
-1542
-3890
-5952
-6133
-4645
-1087
241
-149
-2111
-1542
-1542
-1542
-1542
-1542
-1542
-1542
-1542
-1542
-1542
-1542
-1542
-1542
-1542
-1542
-1542
-1542
-1542
-1542
-1542
-1542
-1542
-1542
-1542
-1542
-1542
-1542
-1542
-1542
-1048
-1048
-1048
-1048
-1048
-1048
-1048
-1048
-1048
-1048
-1048
-1048
-1048
-1048
-1048
-1048
-1048
-1048
-1048
-1048
-1048
-1048
-1048
-1048
-1048
-1048
-1048
-1048
-1048
-1048
-1048
-1048
-1048
-1048
-1048
-1048
-1048
-1048
-1048
-1048
-2062
129
3515
398
-3920
-2994
-1048
-1048
-1048
-1048
-1048
-1048
-1048
-1048
-1048
-1048
-1048
-1048
-1048
-1048
-1048
-1048
-1764
-515
2064
4215
3714
231
-3901
-2707
-1048
-1048
-1048
-1048
-1048
-1048
-1048
-1048
-1048
-1048
-1048
-1048
-1048
-1048
-1048
-2062
312
3749
4849
5872
5160
-2529
-6993
-4477
-1048
-1048
-1048
-1048
-1048
-1048
-1048
-1048
-1048
-1048
-1048
-1048
-1048
-1926
-163
2445
3327
5022
4225
6971
3164
-4991
-8514
-4797
-1048
-1048
-1048
-1048
-1048
-1048
-1048
-1048
-1048
-1048
-1048
-1048
-2062
354
4260
4685
4518
5922
5674
2561
-462
-6966
-9519
-4215
-1048
-1048
-1048
-1048
-1048
-1048
-1048
-1048
-1048
-1048
-1048
-2062
389
3937
7270
4162
5729
2647
2950
-2667
-6026
-8674
-4087
-1346
-1048
-1048
-1048
-1048
-1048
-1048
-1048
-1048
-1048
-1048
-1736
-316
3015
7118
8410
3913
1948
-1204
-4138
-6938
-5747
-3469
-1048
-1048
-1048
-1048
-1048
-1048
-1048
-1048
-1048
-1048
-1048
-1048
-1885
6
8760
12916
4057
-443
-3725
-6523
-7915
-3854
-1048
-1048
-1048
-1048
-1048
-1048
-1048
-1048
-1048
-1048
-1048
-1048
-2062
129
1949
3584
12260
13111
2170
-6163
-8397
-7912
-4496
-1048
-1048
-1048
-1048
-1048
-1048
-1048
-1048
-1048
-1048
-1048
-1048
-1048
-789
-600
4002
11046
15646
8415
-4274
-7178
1789
1156
-2971
-3920
-2994
-1048
-1048
-1048
-1048
-1048
-1048
-1048
-1048
-1048
-1048
-1048
-2259
1030
6017
12493
9519
-1084
-8346
-4179
1762
1923
2094
-1792
-5373
-2994
-1048
-1048
-1048
-1048
-1048
-1048
-1048
-1048
-1048
-1048
-3030
2252
13922
12491
2012
-6070
-4661
1949
2632
1309
-905
810
-1496
-3000
-3920
-2994
-1048
-1048
-1048
-1048
-1048
-1048
-1048
-1048
-2016
1638
21099
11434
-6623
-11346
-673
2110
3609
3059
615
-2305
-1913
2367
-1082
-5373
-2994
-1048
-1048
-1048
-1048
-1048
-1048
-1048
-2252
1631
18563
10874
-10718
-13992
-505
1346
5225
4652
5630
-2383
520
2180
-764
-8004
-4446
-1048
-1048
-1048
-1048
-1048
-1048
-1048
-3155
4181
16839
12144
-10164
-14855
-2994
-1191
434
2217
5230
2643
6804
6992
-2405
-11899
-6058
-1048
-1048
-1048
-1048
-1048
-1048
-1048
-2521
4236
15509
8593
-3746
-9894
-5373
-2994
-1048
-2262
1985
7154
13823
11906
-6765
-15773
-7936
-1048
-1048
-1048
-1048
-1048
-1048
-1048
-1492
-39
11899
8222
-1257
-4366
-1766
-2618
-3862
-1329
4109
3489
11386
12741
-1703
-15016
-7731
-1048
-1048
-1048
-1048
-1048
-1048
-1048
-1099
-1625
3901
10713
5131
-3236
-3324
1330
2415
864
5381
3586
7094
3017
-5474
-12819
-4348
-1048
-1048
-1048
-1048
-1048
-1048
-1048
-1048
-1249
151
6082
8810
551
-2463
-2501
-320
1645
9252
3500
1192
-2978
-7094
-7574
-1456
-1048
-1048
-1048
-1048
-1048
-1048
-1048
-1048
-1048
-1249
151
7280
4196
973
-549
-796
1067
3807
457
-5290
-6539
-6048
-3854
-1048
-1048
-1048
-1048
-1048
-1048
-1048
-1048
-1048
-1048
-1048
-1249
1122
3355
3820
2119
-89
1621
1309
-4947
-9450
-3854
-1048
-1048
-1048
-1048
-1048
-1048
-1048
-1048
-1048
-1048
-1048
-1048
-1048
-1048
-1048
-1188
406
3154
2501
81
-3137
-6048
-3854
-1048
-1048
-1048
-1048
-1048
-1048
-1048
-1048
-1048
-1048
-1048
-1048
-1048
-1048
-1048
-1048
-1048
-1048
-1048
-1048
-1048
-1048
-1048
-1048
-1048
-1048
-1048
-1048
-1048
-1602
-1602
-1602
-1602
-1602
-1602
-1602
-1602
-1602
-1602
-1602
-1602
-1602
-1602
-1602
-1602
-1602
-1602
-1602
-1602
-1602
-1602
-1602
-1602
-1602
-1602
-1602
-1602
-1602
-1602
-1602
-1602
-1602
-1602
-1602
-1602
-1602
-1602
-1602
-1602
879
406
-944
2162
1515
-1117
-1602
-1602
-1602
-1602
-1602
-1602
-1602
-1602
-1602
-1602
-1602
-1602
-1602
-1602
-1602
-1602
149
545
2130
-150
713
3858
-401
-2826
-1602
-1602
-1602
-1602
-1602
-1602
-1602
-1602
-1602
-1602
-1602
-1602
-1602
-1602
-1602
879
1059
532
551
585
500
-2581
-3329
-984
-1602
-1602
-1602
-1602
-1602
-1602
-1602
-1602
-1602
-1602
-1602
-1602
-1602
548
469
2312
-156
531
-1273
-4332
-1841
-3215
-1612
-1155
-1602
-1602
-1602
-1602
-1602
-1602
-1602
-1602
-1602
-1602
-1602
-1602
879
1208
-608
782
-469
-1815
-6727
-7893
-2157
-1586
-2952
-1737
-1602
-1602
-1602
-1602
-1602
-1602
-1602
-1602
-1602
-1602
-1602
879
1331
-2475
-379
-647
-6341
-6829
-6110
-2264
-2540
-2761
-1928
-1621
-1602
-1602
-1602
-1602
-1602
-1602
-1602
-1602
-1602
-1602
81
1483
-2871
-2974
378
-5935
-7762
-3669
-3525
-1727
-3018
-1752
-1602
-1602
-1602
-1602
-1602
-1602
-1602
-1602
-1602
-1602
-1602
-1602
1507
-433
-5563
-1282
-3087
-5957
-2610
-2065
-3013
-1776
-1602
-1602
-1602
-1602
-1602
-1602
-1602
-1602
-1602
-1602
-1602
-1602
879
406
2302
527
-2353
2311
2525
-101
2093
500
-1222
-1602
-1602
-1602
-1602
-1602
-1602
-1602
-1602
-1602
-1602
-1602
-1602
-1602
-677
-448
-3970
-4701
-4583
-2650
-1173
-991
3128
2244
1397
1515
-1117
-1602
-1602
-1602
-1602
-1602
-1602
-1602
-1602
-1602
-1602
-1602
-1809
326
-9118
-8222
237
-4214
-6159
-3161
-861
175
2611
2943
240
-1117
-1602
-1602
-1602
-1602
-1602
-1602
-1602
-1602
-1602
-1602
-351
-282
-6959
-3158
484
-2664
-4625
-2316
-4167
-3570
-895
2223
2879
1372
1515
-1117
-1602
-1602
-1602
-1602
-1602
-1602
-1602
-1602
-537
-6584
-6909
711
-4892
-6146
-7317
-4868
-3558
-3912
-4425
-2070
502
1666
2766
240
-1117
-1602
-1602
-1602
-1602
-1602
-1602
-1602
-305
-5620
-7200
2968
-1461
-2179
-4516
-6247
-6245
-4395
-2720
-2127
-4658
-2862
3313
2706
-2392
-1602
-1602
-1602
-1602
-1602
-1602
-1602
-2875
-3944
-4227
-437
865
1188
-1117
-3263
-5242
-6092
-4395
647
-6148
-3924
1211
-563
-2054
-1602
-1602
-1602
-1602
-1602
-1602
-1602
-5242
-6745
-1296
-2153
-2146
3546
240
-1117
-1602
-1460
-4121
-2101
-4785
1620
1
-3565
-667
-1602
-1602
-1602
-1602
-1602
-1602
-1602
-4253
-7278
-2502
-1418
-5728
3322
3541
1742
4204
2744
-2441
-3102
-4897
-943
-2592
-4554
-1299
-1602
-1602
-1602
-1602
-1602
-1602
-1602
-2189
-5642
-4695
-165
-5978
-3364
501
2481
4423
-252
-661
-2080
-8174
-3482
-3162
-2237
-1722
-1602
-1602
-1602
-1602
-1602
-1602
-1602
-1602
-3941
-7014
-3722
-2168
-4371
-6226
-3717
-2473
-4952
-4004
-5580
-5516
612
-3483
-1617
-1628
-1602
-1602
-1602
-1602
-1602
-1602
-1602
-1602
-1602
-3941
-7014
-3486
-2102
-4581
-3336
-6115
-7554
-5960
-4860
-3437
-1549
-3215
-1776
-1602
-1602
-1602
-1602
-1602
-1602
-1602
-1602
-1602
-1602
-1602
-3941
-5773
-5341
-5516
-3416
-6455
-5750
-1929
-2393
-2848
-1776
-1602
-1602
-1602
-1602
-1602
-1602
-1602
-1602
-1602
-1602
-1602
-1602
-1602
-1602
-1602
-3235
-5220
-4866
-5479
-3696
-1916
-3215
-1776
-1602
-1602
-1602
-1602
-1602
-1602
-1602
-1602
-1602
-1602
-1602
-1602
-1602
-1602
-1602
-1602
-1602
-1602
-1602
-1602
-1602
-1602
-1602
-1602
-1602
-1602
-1602
-1602
-1602
275
275
275
275
275
275
275
275
275
275
275
275
275
275
275
275
275
275
275
275
275
275
275
275
275
275
275
275
275
275
275
275
275
275
275
275
275
275
275
275
-1904
-3248
-3374
-1158
117
-755
275
275
275
275
275
275
275
275
275
275
275
275
275
275
275
275
-1263
-2852
-4520
-3777
-4988
135
2356
1105
275
275
275
275
275
275
275
275
275
275
275
275
275
275
275
-1904
-2997
-5706
-5567
-7035
-837
6407
5354
991
275
275
275
275
275
275
275
275
275
275
275
275
275
-1613
-3069
-4891
-4238
-7669
-3934
1863
11513
10174
2716
35
275
275
275
275
275
275
275
275
275
275
275
275
-1904
-2940
-5206
-5437
-6190
-1505
6890
13064
13209
3009
-3394
-1734
275
275
275
275
275
275
275
275
275
275
275
-1904
-2893
-5183
-7295
-3432
2542
12047
13684
8533
760
-3334
-1869
65
275
275
275
275
275
275
275
275
275
275
-1203
-2461
-4599
-8322
-1089
7749
13096
11364
4679
-1896
-3061
-1430
275
275
275
275
275
275
275
275
275
275
275
275
-1663
-4847
-9706
-3276
12481
13126
7328
-387
-3445
-1702
275
275
275
275
275
275
275
275
275
275
275
275
-1904
-3248
-5997
-8611
-10772
3615
10241
1312
-4927
-2741
-1820
275
275
275
275
275
275
275
275
275
275
275
275
275
629
-2692
-5022
-6714
4793
12190
3952
-7130
-6018
154
-1267
117
-755
275
275
275
275
275
275
275
275
275
275
275
-930
-5274
-5830
-1789
12350
7358
-45
-2580
-17
-1615
-949
1130
1056
-755
275
275
275
275
275
275
275
275
275
275
-2148
-3485
-3949
5403
15399
6179
125
723
2743
-684
-219
-704
1134
-1249
117
-755
275
275
275
275
275
275
275
275
-2339
-3704
-4264
5496
8417
608
498
1987
117
-141
2274
1134
-1309
-1255
1506
1056
-755
275
275
275
275
275
275
275
-1099
-7752
-2796
7915
8028
-1724
303
2500
3876
4357
497
-3454
-3500
-1111
3348
3753
184
275
275
275
275
275
275
275
-1072
-5691
245
6535
4953
-608
-755
-276
1318
3202
3696
-836
-3384
-2822
6876
6005
1681
275
275
275
275
275
275
275
-1045
1203
3663
966
-1731
197
1056
-755
275
-2680
-1517
-2679
-2764
-2488
7619
3904
723
275
275
275
275
275
275
275
-564
849
3114
-210
-3862
-3652
553
-2043
-2945
-4151
-4622
-5486
-332
9347
11546
233
-1917
275
275
275
275
275
275
275
80
-106
2750
2622
851
-158
-13
-3273
-2283
-4056
-8210
-3207
6786
14101
6807
-2708
-1746
275
275
275
275
275
275
275
275
-501
1814
4214
1087
-772
681
1814
1594
-2231
1201
10931
13661
7864
302
-2235
-12
275
275
275
275
275
275
275
275
275
-501
1814
5392
3725
-365
159
2039
3022
11291
12951
5309
-1628
-3278
-1702
275
275
275
275
275
275
275
275
275
275
275
-501
2062
3844
3354
2105
2118
5767
8721
1733
-3582
-1702
275
275
275
275
275
275
275
275
275
275
275
275
275
275
275
-267
1288
3427
2917
1837
-1323
-3278
-1702
275
275
275
275
275
275
275
275
275
275
275
275
275
275
275
275
275
275
275
275
275
275
275
275
275
275
275
275
275
-350
-350
-350
-350
-350
-350
-350
-350
-350
-350
-350
-350
-350
-350
-350
-350
-350
-350
-350
-350
-350
-350
-350
-350
-350
-350
-350
-350
-350
-350
-350
-350
-350
-350
-350
-350
-350
-350
-350
-350
-178
275
397
-592
-2681
-2146
-350
-350
-350
-350
-350
-350
-350
-350
-350
-350
-350
-350
-350
-350
-350
-350
-229
142
-1959
-1980
-4426
-6639
-2049
563
-350
-350
-350
-350
-350
-350
-350
-350
-350
-350
-350
-350
-350
-350
-350
-178
-1448
-1597
-6887
-8614
-6888
-1387
5433
2869
-350
-350
-350
-350
-350
-350
-350
-350
-350
-350
-350
-350
-350
-201
215
-1912
-3866
-9477
-10665
-4235
6527
8339
5597
1724
-350
-350
-350
-350
-350
-350
-350
-350
-350
-350
-350
-350
-178
-1841
-1582
-7518
-9317
-8656
3978
14100
11898
5787
3376
1728
-350
-350
-350
-350
-350
-350
-350
-350
-350
-350
-350
-178
-2166
-3808
-7174
-10959
-985
10828
15030
10758
4374
3100
1542
-150
-350
-350
-350
-350
-350
-350
-350
-350
-350
-350
-234
-2312
-4239
-6557
-8228
3549
14669
13634
6879
3776
1534
1283
-350
-350
-350
-350
-350
-350
-350
-350
-350
-350
-350
-350
-1835
-4403
-4899
-2653
5771
13325
9820
4108
2491
1543
-350
-350
-350
-350
-350
-350
-350
-350
-350
-350
-350
-350
-178
275
-3585
-5603
-2102
3275
9837
6956
1552
-783
-1072
-350
-350
-350
-350
-350
-350
-350
-350
-350
-350
-350
-350
-350
-2792
-2195
-8166
-6147
1293
-313
2562
4630
-530
-529
-1305
-2681
-2146
-350
-350
-350
-350
-350
-350
-350
-350
-350
-350
-350
-2873
-5257
-2433
-191
6068
2964
2472
4108
-1408
2013
174
-1712
-1578
-2146
-350
-350
-350
-350
-350
-350
-350
-350
-350
-350
-1222
-4108
5878
4152
6681
7221
4378
3225
-837
-168
2482
2144
3119
-1284
-2681
-2146
-350
-350
-350
-350
-350
-350
-350
-350
-157
-133
4971
2300
7718
11097
6694
4172
2498
944
4432
472
3339
430
-1057
-1578
-2146
-350
-350
-350
-350
-350
-350
-350
-5285
-3228
722
-770
4529
6482
2975
4260
5488
3041
3012
72
2332
2984
581
576
-1043
-350
-350
-350
-350
-350
-350
-350
-4473
-2055
5220
1439
6195
5165
-2146
1418
4028
4194
2596
-520
1685
3518
-553
4457
3595
-350
-350
-350
-350
-350
-350
-350
493
382
4405
713
3415
6305
-1578
-2146
-350
2314
4883
898
1591
-43
2243
8161
4659
-350
-350
-350
-350
-350
-350
-350
1887
1660
-70
-372
1583
5001
3165
-1129
-2340
-4046
-1544
-6146
-882
1051
5862
8650
3739
-350
-350
-350
-350
-350
-350
-350
275
1794
505
-1126
44
-45
2450
323
-2817
-5690
-7620
-8487
5333
10216
6365
6515
1796
-350
-350
-350
-350
-350
-350
-350
-350
2142
3784
937
1307
-749
1954
504
-4103
-3451
-2415
6525
13254
8523
2538
3288
-76
-350
-350
-350
-350
-350
-350
-350
-350
-350
2142
3784
3462
1173
3310
3235
-277
7867
12967
13569
8643
3855
1532
1543
-350
-350
-350
-350
-350
-350
-350
-350
-350
-350
-350
2142
4799
4668
3634
5389
8072
12680
8196
3262
3278
1543
-350
-350
-350
-350
-350
-350
-350
-350
-350
-350
-350
-350
-350
-350
-350
1389
3997
5202
5368
4195
2109
1532
1543
-350
-350
-350
-350
-350
-350
-350
-350
-350
-350
-350
-350
-350
-350
-350
-350
-350
-350
-350
-350
-350
-350
-350
-350
-350
-350
-350
-350
-350
-1523
-1523
-1523
-1523
-1523
-1523
-1523
-1523
-1523
-1523
-1523
-1523
-1523
-1523
-1523
-1523
-1523
-1523
-1523
-1523
-1523
-1523
-1523
-1523
-1523
-1523
-1523
-1523
-1523
-1523
-1523
-1523
-1523
-1523
-1523
-1523
-1523
-1523
-1523
-1523
-4008
-7371
-7550
-6161
-2874
-900
-1523
-1523
-1523
-1523
-1523
-1523
-1523
-1523
-1523
-1523
-1523
-1523
-1523
-1523
-1523
-1523
-3277
-6382
-10898
-13031
-8560
-4668
-3370
-2512
-1523
-1523
-1523
-1523
-1523
-1523
-1523
-1523
-1523
-1523
-1523
-1523
-1523
-1523
-1523
-4008
-8534
-12878
-14746
-12480
-8274
-5296
-2441
-380
-1523
-1523
-1523
-1523
-1523
-1523
-1523
-1523
-1523
-1523
-1523
-1523
-1523
-3677
-6922
-11327
-14245
-12690
-6918
-648
-141
1094
102
-2412
-1523
-1523
-1523
-1523
-1523
-1523
-1523
-1523
-1523
-1523
-1523
-1523
-4008
-8798
-12448
-13740
-8932
-3049
1946
8021
9476
5230
-1185
-1602
-1523
-1523
-1523
-1523
-1523
-1523
-1523
-1523
-1523
-1523
-1523
-4008
-9018
-12798
-13061
-6400
245
7804
11707
10403
4168
-798
-1370
-1520
-1523
-1523
-1523
-1523
-1523
-1523
-1523
-1523
-1523
-1523
-3209
-7937
-12161
-8454
-2234
3205
8174
10265
7923
1958
-483
-1498
-1523
-1523
-1523
-1523
-1523
-1523
-1523
-1523
-1523
-1523
-1523
-1523
-5125
-12138
-9863
-2675
4559
11541
9886
3300
-883
-1494
-1523
-1523
-1523
-1523
-1523
-1523
-1523
-1523
-1523
-1523
-1523
-1523
-4008
-7371
-12796
-15068
-8780
-4841
-2121
-1071
-3205
-2162
-896
-1523
-1523
-1523
-1523
-1523
-1523
-1523
-1523
-1523
-1523
-1523
-1523
-1523
-3171
-7833
-8034
-6334
-3922
436
-5357
-11473
-13185
-11566
-6572
-2874
-900
-1523
-1523
-1523
-1523
-1523
-1523
-1523
-1523
-1523
-1523
-1523
-3195
-9494
-7298
193
1984
960
-6716
-11075
-11646
-12997
-10288
-7980
-3929
-900
-1523
-1523
-1523
-1523
-1523
-1523
-1523
-1523
-1523
-1523
-156
-3853
-2070
7613
11735
12966
6467
-1529
-7539
-11384
-12473
-12030
-10530
-6593
-2874
-900
-1523
-1523
-1523
-1523
-1523
-1523
-1523
-1523
-4566
-4076
-497
3078
5329
9438
13199
13493
9434
-507
-7712
-9950
-12735
-9543
-8207
-3929
-900
-1523
-1523
-1523
-1523
-1523
-1523
-1523
-5392
-7462
-4429
-2492
-2682
-1343
780
7341
13560
13813
5036
-7384
-14970
-12232
-7772
-3880
-1955
-1523
-1523
-1523
-1523
-1523
-1523
-1523
304
-2014
-4117
-2964
-5720
-3665
-900
-737
2288
9980
13014
5422
-5899
-8458
-6456
-4204
-1233
-1523
-1523
-1523
-1523
-1523
-1523
-1523
3044
6395
2225
-2760
-8061
-8158
-3929
-900
-1523
-2899
-1247
141
522
944
-2004
-1360
-1442
-1523
-1523
-1523
-1523
-1523
-1523
-1523
557
6365
4097
-3768
-9430
-12272
-11193
-7986
-6741
-9454
-11350
-5685
4031
7992
3554
209
-2333
-1523
-1523
-1523
-1523
-1523
-1523
-1523
-1245
4412
8435
1988
-3981
-8900
-11240
-11452
-15838
-15994
-12039
-4212
1253
6717
5427
129
-1642
-1523
-1523
-1523
-1523
-1523
-1523
-1523
-1523
-415
7264
11301
4513
-2927
-8798
-8249
-8579
-5092
-217
4565
8290
6553
681
-2345
-1519
-1523
-1523
-1523
-1523
-1523
-1523
-1523
-1523
-1523
-415
7264
12944
11036
3896
-2095
-1602
2874
7496
10652
9012
2483
-322
-1494
-1523
-1523
-1523
-1523
-1523
-1523
-1523
-1523
-1523
-1523
-1523
-415
3393
9921
13516
12883
12322
10122
8704
3955
-1343
-1494
-1523
-1523
-1523
-1523
-1523
-1523
-1523
-1523
-1523
-1523
-1523
-1523
-1523
-1523
-1523
-750
2243
6064
8037
7303
3504
-322
-1494
-1523
-1523
-1523
-1523
-1523
-1523
-1523
-1523
-1523
-1523
-1523
-1523
-1523
-1523
-1523
-1523
-1523
-1523
-1523
-1523
-1523
-1523
-1523
-1523
-1523
-1523
-1523
-1523
-1523
-794
-794
-794
-794
-794
-794
-794
-794
-794
-794
-794
-794
-794
-794
-794
-794
-794
-794
-794
-794
-794
-794
-794
-794
-794
-794
-794
-794
-794
-794
-794
-794
-794
-794
-794
-794
-794
-794
-794
-794
592
-100
-47
-1783
-4810
-2382
-794
-794
-794
-794
-794
-794
-794
-794
-794
-794
-794
-794
-794
-794
-794
-794
184
103
2005
1653
-1814
-7786
-5921
-2132
-794
-794
-794
-794
-794
-794
-794
-794
-794
-794
-794
-794
-794
-794
-794
592
668
3775
2944
1560
-6079
-6436
-895
809
-794
-794
-794
-794
-794
-794
-794
-794
-794
-794
-794
-794
-794
407
-8
2236
3074
3530
353
-4236
-4882
-3017
-492
-48
-794
-794
-794
-794
-794
-794
-794
-794
-794
-794
-794
-794
592
843
3691
2998
1632
-2796
-5990
-8251
-5271
-4497
-701
1174
-794
-794
-794
-794
-794
-794
-794
-794
-794
-794
-794
592
989
5624
4977
-402
-5840
-6678
-9012
-6302
-4536
-741
884
-592
-794
-794
-794
-794
-794
-794
-794
-794
-794
-794
146
1211
5531
6703
-3429
-7595
-8570
-6823
-6758
-1864
-761
852
-794
-794
-794
-794
-794
-794
-794
-794
-794
-794
-794
-794
1331
5241
8169
-3828
-13532
-11009
-6255
-3402
-750
1114
-794
-794
-794
-794
-794
-794
-794
-794
-794
-794
-794
-794
592
-100
4310
8081
-1260
-12516
-12561
-9758
-3970
-4047
-1303
-794
-794
-794
-794
-794
-794
-794
-794
-794
-794
-794
-794
-794
294
3859
4479
4496
-7936
-9336
-4704
215
-1792
-6214
-4517
-4810
-2382
-794
-794
-794
-794
-794
-794
-794
-794
-794
-794
-794
1996
7015
5491
655
-4003
-2542
4854
8974
2543
906
-4375
-6192
-5979
-2382
-794
-794
-794
-794
-794
-794
-794
-794
-794
-794
1990
3985
2159
-9797
-12711
-6412
795
4028
4714
4026
961
-1327
-4030
-4540
-4810
-2382
-794
-794
-794
-794
-794
-794
-794
-794
-495
3093
-3361
-13904
-16563
-6941
-5853
-2657
1054
1626
4739
1570
1303
-3456
-5613
-5979
-2382
-794
-794
-794
-794
-794
-794
-794
3433
8191
-1093
-6100
-9719
-45
-3648
-4573
-6784
-3407
-11
5003
5033
1795
-4022
-6365
-3552
-794
-794
-794
-794
-794
-794
-794
3612
5534
164
-6546
-6426
-1780
-2382
-2362
-4462
-4799
-4716
2562
3370
3500
-7930
-4160
-467
-794
-794
-794
-794
-794
-794
-794
-921
-354
968
-5713
-4821
-865
-5979
-2382
-794
-1616
-3801
498
-672
-6342
-10573
-2035
1327
-794
-794
-794
-794
-794
-794
-794
-2655
-1197
676
1216
-1885
1976
-3660
-4447
-3178
-959
1766
1594
-7439
-12886
-10000
-1943
1928
-794
-794
-794
-794
-794
-794
-794
-1349
-2133
-277
1800
440
2073
1306
-868
-2384
522
2508
-4194
-9270
-5602
-5234
950
1196
-794
-794
-794
-794
-794
-794
-794
-794
-3003
-3673
-1465
-917
2136
4771
4413
4443
5689
-2574
-7302
-6819
-3017
-4427
1362
-518
-794
-794
-794
-794
-794
-794
-794
-794
-794
-3003
-3673
-4239
-2937
229
4209
3429
29
-6157
-7698
-6261
-2081
-1059
1114
-794
-794
-794
-794
-794
-794
-794
-794
-794
-794
-794
-3003
-5059
-5677
-6643
-3799
-5777
-7301
-6258
-5551
-496
1114
-794
-794
-794
-794
-794
-794
-794
-794
-794
-794
-794
-794
-794
-794
-794
-2336
-4438
-6166
-8162
-5277
-2645
-1059
1114
-794
-794
-794
-794
-794
-794
-794
-794
-794
-794
-794
-794
-794
-794
-794
-794
-794
-794
-794
-794
-794
-794
-794
-794
-794
-794
-794
-794
-794
-2999
-2999
-2999
-2999
-2999
-2999
-2999
-2999
-2999
-2999
-2999
-2999
-2999
-2999
-2999
-2999
-2999
-2999
-2999
-2999
-2999
-2999
-2999
-2999
-2999
-2999
-2999
-2999
-2999
-2999
-2999
-2999
-2999
-2999
-2999
-2999
-2999
-2999
-2999
-2999
873
5400
4336
1584
928
-846
-2999
-2999
-2999
-2999
-2999
-2999
-2999
-2999
-2999
-2999
-2999
-2999
-2999
-2999
-2999
-2999
-266
4068
6156
6354
7457
4060
-632
-3288
-2999
-2999
-2999
-2999
-2999
-2999
-2999
-2999
-2999
-2999
-2999
-2999
-2999
-2999
-2999
873
4534
7567
4530
4151
2885
-980
-1588
-1119
-2999
-2999
-2999
-2999
-2999
-2999
-2999
-2999
-2999
-2999
-2999
-2999
-2999
357
4796
6608
4159
3054
-1858
-6453
-4397
-1787
-864
-1757
-2999
-2999
-2999
-2999
-2999
-2999
-2999
-2999
-2999
-2999
-2999
-2999
873
4337
6607
3478
926
-6332
-11051
-9168
-5184
-4057
-2790
-3366
-2999
-2999
-2999
-2999
-2999
-2999
-2999
-2999
-2999
-2999
-2999
873
4173
2150
1509
-2361
-8591
-10848
-10253
-5014
-6175
-3134
-3504
-3050
-2999
-2999
-2999
-2999
-2999
-2999
-2999
-2999
-2999
-2999
-372
2718
856
-1585
-5369
-9856
-8904
-6759
-6036
-5062
-3703
-3410
-2999
-2999
-2999
-2999
-2999
-2999
-2999
-2999
-2999
-2999
-2999
-2999
41
2314
517
-5121
-7292
-7771
-4994
-5831
-3170
-3476
-2999
-2999
-2999
-2999
-2999
-2999
-2999
-2999
-2999
-2999
-2999
-2999
873
5400
4993
3510
6334
8370
7539
5969
2478
272
-1150
-2999
-2999
-2999
-2999
-2999
-2999
-2999
-2999
-2999
-2999
-2999
-2999
-2999
-4226
1229
-1219
-8554
-5705
-1255
3735
12383
10562
6801
3230
928
-846
-2999
-2999
-2999
-2999
-2999
-2999
-2999
-2999
-2999
-2999
-2999
-5886
-3628
-5508
-11591
-8094
-6370
-5551
2827
8734
13520
9810
3138
411
-846
-2999
-2999
-2999
-2999
-2999
-2999
-2999
-2999
-2999
-2999
-2769
-5558
-3080
-7134
-8838
-9335
-12713
-9984
-5675
3184
12505
12547
8071
3220
928
-846
-2999
-2999
-2999
-2999
-2999
-2999
-2999
-2999
-2822
-4758
-2061
-1950
-7344
-6953
-15005
-16664
-16091
-11390
-1428
6557
13694
9201
2353
411
-846
-2999
-2999
-2999
-2999
-2999
-2999
-2999
-6229
-7063
972
860
129
371
-5909
-10381
-15659
-16971
-13384
-3388
5775
11264
6111
2889
-1363
-2999
-2999
-2999
-2999
-2999
-2999
-2999
-9896
-12553
3006
3710
3805
2908
-846
-4727
-6509
-12518
-14963
-12600
-4816
4373
2954
2346
-1269
-2999
-2999
-2999
-2999
-2999
-2999
-2999
-9798
-18023
-5994
6007
7059
4107
411
-846
-2999
-1561
103
-7239
-6751
-466
1066
318
-101
-2999
-2999
-2999
-2999
-2999
-2999
-2999
-6344
-14309
-14837
-1795
7856
13476
9104
5202
6455
7362
4550
-4886
-7190
-5541
-6265
-2123
-2157
-2999
-2999
-2999
-2999
-2999
-2999
-2999
-3610
-9442
-14950
-12923
-3673
1976
11031
11790
9174
5122
3969
-6023
-8938
-5843
-4788
-887
-3325
-2999
-2999
-2999
-2999
-2999
-2999
-2999
-2999
-5434
-10576
-17000
-11895
-8173
-4675
1131
-1125
-3990
-7624
-11441
-7125
-3211
-3491
-2476
-3069
-2999
-2999
-2999
-2999
-2999
-2999
-2999
-2999
-2999
-5434
-10576
-14067
-14241
-11313
-7579
-10307
-10461
-7575
-7814
-5371
-5438
-3740
-3476
-2999
-2999
-2999
-2999
-2999
-2999
-2999
-2999
-2999
-2999
-2999
-5434
-6948
-12217
-14017
-13749
-13981
-10715
-6600
-5888
-2702
-3476
-2999
-2999
-2999
-2999
-2999
-2999
-2999
-2999
-2999
-2999
-2999
-2999
-2999
-2999
-2999
-4699
-6491
-8858
-9869
-7846
-6476
-3740
-3476
-2999
-2999
-2999
-2999
-2999
-2999
-2999
-2999
-2999
-2999
-2999
-2999
-2999
-2999
-2999
-2999
-2999
-2999
-2999
-2999
-2999
-2999
-2999
-2999
-2999
-2999
-2999
-2999
-2999
