-0.137394
-0.524216
-0.967500
-1.270244
-2.034254
-2.013871
0.781329
2.679173
-1.028112
-1.961769
-1.881843
-1.371244
-1.913918
-2.988282
-2.714904
-0.666453
-0.702572
-1.189157
-1.222171
-0.934587
-0.593095
-0.959146
-1.678226
-1.481686
-1.381326
-2.220186
-2.373169
-1.549181
-1.136361
-1.686845
-1.859386
-1.997144
-0.987028
-3.378086
-3.018751
-1.910369
-2.043294
-2.432908
-1.664781
-1.248226
2.981875
-0.419677
-2.683897
-2.969678
-2.601662
-2.034529
-1.139254
-0.570876
4.500130
6.029061
4.783851
2.647752
1.441235
0.571848
-0.065238
-0.759113
-1.139991
1.581348
3.018317
2.418717
1.213517
0.515254
-0.358179
-0.795136
-0.730230
-1.427092
-1.057706
-0.646027
-1.033484
-1.484392
-0.260266
0.624070
-1.322923
-1.419835
-1.408515
-1.791337
-2.405464
-2.623438
-2.025368
-1.888524
-2.328363
-2.485263
-2.605956
-2.608616
-2.081227
-2.028545
-2.239801
-2.656689
-1.960557
-3.821838
-4.090431
-3.255352
-2.202827
-1.773072
-1.850817
-1.688849
-0.302218
-3.078056
-4.394762
-3.261827
-1.428619
-1.088354
-1.671062
-0.955005
4.491003
5.508105
5.012046
4.172633
2.703149
0.085128
-0.477593
-0.391643
1.398237
3.329300
3.701449
2.481824
1.107801
-0.028585
-0.230317
-0.822045
-2.011676
-1.194420
0.107237
0.435205
-0.021501
-0.425586
-1.190303
-1.544534
-2.882556
0.173497
3.215869
1.931402
0.204801
-0.443914
-0.343666
-1.361898
1.111639
1.278098
0.604858
-0.331072
-0.266971
-0.182609
-0.843714
-2.570208
0.090007
-1.050953
-0.847179
-0.556718
-0.009584
-1.396452
-3.030552
-3.192918
-1.219495
-1.242773
-0.174368
0.726646
-0.355742
-3.851575
-3.897387
-1.297582
-1.491285
-1.007937
-0.033595
-1.266272
-5.379878
-5.655335
-0.887319
1.365974
-2.439025
-3.626921
-4.467226
-6.135107
-4.602862
0.109248
3.225989
1.479088
-2.516402
-3.634071
-2.927059
-0.654510
2.711660
4.067717
1.246968
-0.664578
0.156798
0.090488
1.334251
3.087044
2.448477
-0.015521
-1.210270
-0.956617
0.495264
-0.793225
0.608682
0.235880
-1.624256
-2.033015
-1.123224
0.176570
-0.666009
-0.610817
-1.313786
-2.621180
-3.124992
-3.270635
-2.119760
-0.514994
-0.329714
-1.199586
-1.166977
-0.902837
-0.712012
-0.664931
0.014851
0.034616
-0.176029
-0.529276
-0.555534
-0.662264
-0.270408
0.105103
-0.193749
-1.062417
-0.357445
-0.435261
-0.308610
0.068519
0.383359
0.090297
-0.852551
-0.499588
0.029517
0.108806
-0.352826
-0.150365
-0.225514
-0.654001
-0.369462
0.565372
0.445432
0.752847
0.708251
0.395078
0.130407
0.293642
0.054161
-0.963758
-1.006340
-0.122316
0.569028
0.678067
0.295096
-1.270082
-1.978453
-1.495753
-1.039709
-0.566121
-0.349202
-1.060508
-2.381428
-2.531823
-0.481845
-0.304870
-0.342900
-1.367527
-2.362471
-2.224834
-1.450233
-1.516124
-1.579101
-1.750485
-1.749807
-2.752788
-1.707982
-0.064581
0.484550
-0.575276
-1.653646
-1.499877
-1.594551
-2.201718
-0.796723
0.245092
-0.358330
-1.455126
-1.271037
-1.075597
0.243902
-1.168159
-0.729153
-0.467646
-1.240867
-1.218310
-0.816399
-0.918535
2.517946
2.244093
1.520485
0.479182
-0.258105
-0.128204
-0.620973
-1.184120
-0.140369
0.474667
0.413921
0.532909
1.171064
-0.038693
-1.722463
-1.921701
-2.678122
-2.396828
-1.578173
-0.691889
-1.802644
-2.763387
-2.347899
-1.090493
-1.775299
-1.575954
-1.205910
-0.996133
-1.618115
-1.159131
0.597037
1.092182
-0.814402
-0.251633
-0.099534
0.272552
-0.692007
-0.913909
-0.848205
-0.473525
0.073234
0.547652
0.362491
-0.183716
0.057078
0.389822
-0.904244
-0.738324
0.418809
0.506673
0.290435
0.555311
1.409821
0.594957
-1.328292
-1.038289
0.547833
0.446104
1.461915
2.158706
0.861921
-1.184563
-1.642313
-0.841629
-0.095584
-0.702564
-0.247974
-1.634634
-2.961101
-2.539995
-1.382624
-0.310348
0.766149
0.991574
0.379753
-1.671657
-1.041944
-0.650071
-0.169519
0.028745
-2.783389
-2.226982
-0.904015
-0.289023
-0.059042
0.350570
0.565383
-0.018146
-1.142234
-0.423214
0.411557
1.723806
2.138735
2.452809
2.551116
1.170475
0.145380
0.447545
0.466640
-0.164213
-1.285500
-0.324705
0.566395
0.075597
0.281094
-0.168679
-1.100775
-1.414802
-1.741466
-1.115658
-0.471224
-0.967954
-1.388428
-1.878223
-1.536801
-1.453839
-1.479504
-0.918374
-0.900289
-1.677300
-2.967542
-3.734193
-2.634446
-1.510972
-1.445053
-1.284132
-2.340303
-2.036054
-1.016584
-3.130657
-4.830271
-5.168185
-3.978831
-2.650236
-1.883612
-0.131764
2.064027
1.254847
-0.548564
-1.721853
-0.863281
0.372746
1.091871
0.311296
2.587015
3.996436
5.408244
5.391512
4.532555
3.315760
1.136938
-0.198148
-1.476914
-2.959751
-2.808542
-2.995379
-3.763842
-3.676093
-2.196276
-1.527631
-2.221164
-1.828181
-1.064835
-1.292081
-1.720514
-2.206720
-1.250332
-0.875972
-1.422256
-0.579282
-1.255110
-1.218502
-0.666460
-0.421769
-1.073410
-0.837976
0.262987
0.089628
-1.905392
-1.153518
-0.011578
0.007684
-0.513123
-0.354618
1.881213
2.493379
1.354384
1.898742
1.432417
0.840075
-0.410096
-0.771516
2.334632
5.583479
7.092588
6.061034
3.506294
0.071827
-1.376492
-1.228084
-4.062885
-4.671901
-5.328900
-5.316167
-5.335763
-4.399542
-2.642452
-1.835617
-3.951486
-5.426004
-6.549235
-6.179028
-4.528069
-2.581671
-1.834834
-1.445707
-3.470127
-2.118770
-1.489998
-1.600311
-1.252755
-1.514057
-3.639117
-4.199482
-3.038513
-0.351099
0.116165
-0.070182
0.744459
0.190374
-3.676596
-5.231272
-1.927458
0.653973
0.447139
0.664630
0.964711
-1.007942
-4.029330
-4.269639
-1.302951
1.003374
0.044738
-0.123003
-1.059669
-3.122902
-4.118370
-2.348638
-1.292056
1.537004
-0.397617
-2.099335
-3.026817
-3.492817
-2.836022
-0.892552
-1.842482
1.489765
0.970292
-1.433637
-2.567411
-2.886904
-1.845402
-0.570301
-3.402149
-1.633617
-1.079227
-2.456917
-2.848182
-1.972995
-0.918329
-0.079150
-3.501346
-3.732667
-2.198100
-1.848446
-1.508492
-0.326390
0.084470
0.307889
-3.954121
-1.871141
-0.889568
-1.319521
-1.577694
-1.649092
-1.826206
-2.103170
-1.359087
0.605320
0.438981
1.263546
1.540832
1.544636
0.130669
-1.825786
0.051466
0.955394
0.974411
1.438111
1.308374
0.848004
-1.505332
-2.237216
0.228533
1.110372
0.426913
0.650784
1.087623
-1.487262
-3.865606
-1.571715
-0.012251
0.682325
1.002738
0.367059
-2.052932
-4.682119
-2.644141
1.002280
-0.255912
-0.036273
-0.511247
-2.978037
-4.569844
-2.318072
0.343238
0.908729
-1.236349
-1.374162
-1.479949
-2.608312
-1.517252
0.045788
0.575379
0.830066
-2.581244
-3.587076
-3.249967
-1.608190
-0.478110
0.365552
1.003412
1.081850
-1.348432
-1.266560
-1.547949
-2.155059
-1.485827
-1.663577
-2.256243
-1.310287
-2.357373
-0.578593
-1.122109
-1.274356
-0.956722
-1.007356
-2.085055
-1.927109
-1.285447
1.253449
-0.767051
-0.916167
-0.700181
-0.904705
-1.433552
-2.379739
0.482061
1.539761
-1.821011
-1.383373
-0.972928
-0.902273
-2.023686
-2.026791
1.230490
1.406426
-1.672939
-1.467582
-0.565896
-1.293105
-3.006620
-1.616277
0.874714
1.691917
-0.092466
-0.748414
-0.871259
-2.822766
-2.928891
-0.334627
-0.545302
0.620941
-0.408990
-1.443219
-3.165214
-3.172513
-1.705499
-0.091747
-0.930092
0.044027
-0.916174
-2.665159
-2.853424
-1.470296
-0.085561
-0.464396
0.590933
4.147221
2.132804
-0.324073
-1.946265
-3.206283
-2.671297
-0.830478
4.779967
2.021734
-1.882296
-2.320900
-1.899058
-2.029391
-2.615800
-0.761128
2.629306
-2.073851
-2.307520
-0.525219
-0.597987
-3.473286
-3.156058
2.220530
-0.151636
-3.122994
-1.477127
-0.619602
-3.177142
-6.149538
-0.355689
5.310843
-0.882567
-2.830395
-2.821101
-3.666368
-5.837742
-3.403712
5.458646
4.436577
-1.302715
-2.478145
-3.540262
-4.062158
-1.799625
4.978324
5.429760
-0.931435
-2.058440
-2.446574
-2.199835
-0.053474
3.938597
3.907727
-0.811849
-3.322717
0.277290
-0.372848
-0.293374
0.703387
0.627653
-2.009263
-3.531340
-1.972251
-1.925107
-0.333223
0.199153
1.446199
0.966945
0.237652
-0.576097
-1.767547
0.878118
1.207844
1.101130
1.320171
1.647134
2.129518
1.071712
-0.708830
0.352833
-0.080165
-0.283490
-0.394731
0.044648
0.476873
-0.746439
-0.576876
-0.306700
-0.387715
0.261294
0.589276
0.595954
-0.343789
-1.130993
0.206086
-0.625744
-0.522734
0.879535
1.338094
-0.619783
-1.888579
-1.046527
-0.728550
-0.544780
-0.779037
-0.763597
-2.484178
-3.034500
-1.807527
-1.172105
-0.478359
-3.473073
-4.929482
-5.036813
-3.375466
-1.138458
-0.128680
-0.222791
-0.130783
-0.142181
-0.820987
-0.903650
0.240447
0.272978
0.002258
0.103975
0.007163
-3.737248
-3.099532
1.250863
2.332657
0.824502
-0.749438
-1.982614
-2.602775
-4.512382
3.135491
3.920176
0.287121
-1.314501
-2.242590
-2.227689
-2.279195
1.070862
5.261953
-0.834449
-2.173304
-1.061235
-0.725192
-1.316579
-4.216415
2.712171
1.145752
-2.220817
-0.930637
-0.961149
-0.351864
-4.298767
-5.051600
1.176719
-0.028330
-1.410900
-1.546652
-1.381627
-3.189908
-6.175475
1.155433
-0.709484
-1.326378
-2.229245
-2.236379
-3.089141
-5.117375
-0.501688
6.635972
-1.310681
-2.063033
-2.412720
-2.730634
-3.289845
0.423133
5.725510
2.559114
-1.168887
-1.419956
-1.366649
-1.295378
1.228453
3.841778
1.192301
-2.512341
-0.815033
0.626459
0.582375
-0.639162
-0.444118
-0.320815
-0.097968
0.694688
0.578942
0.456715
-1.053838
-0.496904
0.412051
0.018114
-0.006580
-0.283934
1.694740
-0.761630
-0.447549
0.361718
0.488190
0.520157
-0.342620
-0.708673
0.771062
0.055043
1.721120
1.508052
1.304439
-0.138441
-1.313337
0.454828
-0.150619
1.351981
2.138490
0.898420
-0.318062
-2.057076
-0.465393
1.095155
-2.544490
-3.102888
-3.521044
-3.643993
-3.010034
-1.676295
1.519514
-0.863660
-1.466120
-1.703291
-1.044470
-0.762957
-0.721217
1.266520
-0.056439
-1.769800
0.034026
0.345406
0.582456
0.046391
0.816415
-0.041109
-1.047865
-0.447563
-2.169336
-3.602175
-1.375246
-1.122168
-0.508867
-0.643358
-0.944288
-2.769959
-4.316974
-2.199984
0.508198
-0.287709
-0.100642
-0.407837
-1.293003
-2.762380
-4.468305
0.359161
0.994887
-0.749324
-0.110398
-0.205117
-1.626960
-3.498941
-3.131063
0.784634
0.362853
-0.550549
0.173492
0.449191
-1.280177
-4.400454
-2.853044
-1.025284
-0.859676
0.206944
0.509408
0.011669
-3.447964
-3.152968
-0.020903
-0.046926
-0.088098
0.416669
-0.192166
-3.023727
-3.625212
-1.055883
-0.257499
-0.303986
-1.378025
-1.834420
-3.180152
-3.607774
-2.038656
1.003583
-1.663914
-1.448763
-1.659964
-2.724763
-2.733812
-1.690019
0.289271
0.013102
-1.242481
-1.218194
-0.904444
-0.917423
-1.409443
-2.220130
-1.384058
-0.234366
-0.399278
0.038505
0.358872
0.230121
-0.274267
-0.874804
-0.470623
0.033538
0.280067
-0.231874
-0.607726
-1.215782
-1.050883
-0.717808
-0.940342
-0.467241
-0.936151
-1.735942
-1.224794
-0.975783
-0.660851
-0.674873
-0.721134
-0.463631
-0.878433
-3.228831
-2.548031
-1.247000
-0.978519
-0.972263
-0.424781
0.213130
2.399571
-0.275852
-1.075364
-0.934831
-1.194978
-0.807430
0.116580
-0.234951
2.734959
2.845319
2.099884
1.552497
1.116548
0.943082
0.270533
-0.498591
-2.159779
-2.439388
-2.427026
-1.388262
-0.223151
-0.303761
-0.709932
-1.022921
-1.995031
-2.246804
-1.486228
-2.039736
-2.291589
-1.091387
2.647640
-1.111608
-1.580302
-2.258025
-1.391297
-1.124115
-1.765679
-0.807356
3.192389
-0.175695
-2.734251
-2.283853
-0.769689
-1.130574
-2.182499
-2.004380
1.050995
-0.669670
-3.885830
-2.983437
-1.435155
-1.579461
-2.221580
-1.971964
0.184566
-0.784600
-3.469652
-3.929457
-2.465055
-2.337379
-3.016937
-1.887552
0.114569
-1.773759
-0.600155
-1.979316
-1.462646
-1.752885
-1.635998
-0.253577
-0.706690
-2.310004
-0.248020
-1.667132
-1.506333
-1.254218
-0.870857
-1.149961
-2.102180
-1.648118
0.241342
-1.314890
-2.001187
-1.570554
-2.134064
-2.208710
-1.282580
-0.575808
-1.295361
-1.656544
-0.618129
0.894233
2.020159
1.931242
1.083933
-0.596541
-1.585754
-1.153018
0.262001
1.076879
0.668400
0.113198
-0.430177
-1.085048
-0.848055
0.453451
0.377824
0.318833
-1.040008
-1.437536
-1.589977
-2.034925
0.713302
0.457631
-0.117226
-0.380337
-1.437817
-2.189025
-2.943376
-3.209344
0.025199
-0.818161
-2.291483
-3.147446
-3.713576
-3.958830
-4.321380
-2.238900
-4.025824
-6.883895
-8.204657
-7.267210
-5.597193
-4.124155
-2.233098
0.748311
0.127158
-1.619107
-2.058246
-1.810988
-1.467908
-0.727915
0.977186
2.009569
3.589686
3.802102
2.796929
1.685345
1.431185
2.161307
2.409197
0.681465
-1.425061
-1.729256
-1.024466
0.568251
0.844322
-0.467133
-0.366347
1.668849
-0.949707
0.372159
2.105646
1.698648
-0.180174
-1.238970
-0.911671
0.479699
1.055831
2.280419
-0.104875
-1.664076
-2.071026
-1.340978
-1.175225
-0.441501
2.006214
-0.386248
-2.464180
-1.971348
-1.557416
-1.450397
-1.620202
-1.063478
2.268211
-0.872871
-2.719235
-1.931830
-2.314733
-2.371947
-2.059940
-0.393728
1.692873
0.169481
-1.481425
-1.854783
-2.209306
-2.192370
-0.555786
1.563378
-0.326551
-0.156460
-1.329569
-1.709427
-1.624857
0.488797
2.187041
1.985130
-0.733254
-0.910783
-0.664563
-0.026513
1.954026
3.274468
2.323927
-0.698537
-0.475467
-0.529586
0.688946
2.202925
1.332076
0.744639
1.005521
0.920424
0.363354
0.395884
-0.352165
-1.099884
-1.375607
-1.178024
0.196563
0.143744
-0.006963
-1.257296
-1.724302
-0.509448
0.204225
0.594027
-0.018169
-0.190371
0.153634
-0.604673
-0.728159
-0.256747
0.475403
-0.177703
-0.730506
-0.751893
-0.314105
0.805598
0.541464
0.537892
0.909093
-0.421918
-1.326905
-1.015128
-0.231080
0.803720
2.071677
1.726917
-0.052580
-0.895460
-0.252050
0.258281
0.278743
-0.939420
-1.668584
-1.914693
-0.618660
0.783669
0.903829
-0.220938
0.473867
1.131581
2.188692
3.187754
2.399300
0.510511
-0.748112
-0.712114
-2.962041
0.744066
3.464164
2.808775
0.999262
-0.814290
-1.070554
-0.498022
1.576267
3.218598
2.252697
0.050277
-1.220184
-1.736800
-1.900544
-1.626810
2.129135
0.712902
-0.271705
-1.416802
-0.786910
-2.347231
-3.802990
-1.615690
0.278139
-0.668348
-1.239536
-0.739812
-1.499103
-5.062840
-4.082944
0.748380
-0.213429
-1.275809
-2.237664
-2.729658
-5.441312
-5.968661
-0.040315
3.127422
-1.246939
-2.365369
-3.670442
-5.678814
-5.265021
-0.003872
4.643899
3.269725
-0.748330
-1.343366
-2.025957
-1.444269
2.390758
5.597936
3.955113
1.133047
0.082734
0.894011
1.843269
3.809602
5.112060
2.977120
0.157537
-0.871406
-0.880293
0.662186
1.068059
1.751093
1.908415
2.975538
3.379783
0.065196
-0.165800
-0.717686
-1.851818
-2.315047
-3.041919
-1.330705
-0.614083
-2.356475
-2.037439
-2.597157
-2.642161
-2.086524
-1.797524
-0.879475
-1.481003
-2.470494
-3.093434
-2.969299
-2.269446
-1.781968
-1.883007
-1.582884
-2.321068
-1.800172
-2.084224
-3.287639
-2.880597
-2.958862
-2.260237
-1.836445
-2.284353
-1.754336
1.394672
-0.305003
-1.143317
-1.802431
-1.193484
-1.335960
-1.791363
-1.078960
0.615309
0.510460
0.695240
0.516058
0.369667
-0.155721
-0.199099
-0.745577
1.818681
3.029349
5.200678
5.268226
3.054567
0.844183
-0.829732
-1.799908
-5.382653
-3.114202
1.933259
4.315760
3.011391
0.537647
-0.261099
0.174727
-1.406896
3.893987
5.208222
2.991934
0.520815
-1.542348
-0.664443
-0.955544
3.750267
3.724241
2.103184
0.942886
-0.217567
-0.645682
-1.465774
-2.954559
1.723753
0.804427
0.059247
-0.976397
-0.716288
-2.011586
-4.253038
-2.502843
-1.034605
-0.718020
-0.907892
-1.080997
-2.248118
-6.261454
-4.539723
1.187395
-1.118643
-1.604272
-3.085265
-5.380616
-8.360870
-6.260755
1.845110
4.796503
-1.659939
-3.199827
-5.245960
-6.758297
-3.697975
4.297366
6.874572
3.426199
-0.094066
0.545443
1.555103
4.138750
8.321767
8.104543
3.790426
0.803521
1.068515
3.821791
3.385451
0.398355
-2.254902
-2.917492
-1.669126
-0.877043
1.564485
-0.242481
-3.145327
-3.223489
-1.908004
-1.633907
-1.909786
-2.333777
-1.231292
-1.600457
-0.895202
-0.489467
-0.507452
-0.705738
-1.247632
-1.380858
-1.736813
-0.167578
-0.604254
-1.212561
-1.411606
-1.554403
-1.327806
-0.540675
-0.860974
-0.233355
-1.144483
-1.625369
-2.301963
-1.378327
0.149419
0.724332
-0.376905
-1.846425
-3.096984
-2.686941
-0.234930
2.669874
2.367450
0.312362
0.423259
1.252298
3.241157
6.203996
7.177449
3.845852
-0.003356
-1.684019
1.687374
3.045635
3.331156
2.167746
-0.634364
-2.927044
-2.674291
-0.610639
-2.826065
-2.813478
-0.951259
0.482015
0.764100
-0.295718
-2.457566
-1.915497
-3.892215
-0.465806
1.283024
0.484367
-0.380957
-0.313418
-2.763107
-2.719363
-2.145546
1.294289
0.308547
-0.682598
-0.515240
0.504893
-3.110729
-3.806383
-0.109754
-0.358798
-1.023962
-0.777771
-0.172754
-0.143081
-4.457013
-4.185392
0.091148
-1.315953
-1.775360
-1.098707
-0.709589
-2.384242
-5.371071
-0.815914
-0.458107
-0.907382
-0.704805
-0.468165
-1.643354
-4.188190
-2.385365
2.512029
-1.066959
-0.591599
-1.003353
-1.487021
-3.013901
-2.277301
1.076688
2.525024
-1.227441
-0.942200
-1.263460
-1.920062
-1.183079
0.758404
1.390224
-0.012387
-3.513417
-0.253726
-0.184661
-1.095968
-0.917190
-2.198608
-4.124632
0.064485
-0.669633
2.194945
-0.148495
-1.488203
-1.374276
-2.975360
-5.639212
-1.279441
2.403328
1.780895
-2.434284
-2.152939
-1.750255
-3.087442
-6.400225
-1.579052
2.550828
-0.416241
-2.725288
-1.346451
-0.987675
-5.002896
-5.492743
0.808121
1.962658
-0.515133
-2.300835
-1.904009
-4.223933
-6.268813
-1.935525
3.145723
0.374640
-0.885474
-2.815403
-3.400282
-4.930434
-2.752979
1.716417
2.398917
-1.536663
-1.817129
-3.696979
-4.745386
-2.920969
0.255511
1.445802
-0.872554
-2.144193
-1.470825
-2.963983
-2.877789
-0.600773
0.537035
-1.138594
-2.216410
1.347244
2.419817
1.289584
0.409053
0.103095
0.747938
0.207456
-0.101175
1.245943
-0.041620
-1.500041
-1.195724
-0.995899
-0.458458
-1.015726
-1.154410
-0.149454
-1.257735
-0.402939
-0.257514
-0.088290
-0.309936
-0.828676
-0.157344
-0.181504
-0.194949
-0.208129
-0.635911
-0.432125
-0.274967
-0.431751
0.793450
-0.072170
0.087084
-0.060275
-0.233047
-0.131729
0.059234
0.305654
0.038453
0.024662
0.129101
-0.361089
0.044251
0.692256
1.041516
0.469817
-0.317096
-0.876464
-0.970247
-0.215549
0.954245
1.679705
0.477994
-0.694830
-0.943631
1.834264
2.589126
2.608117
1.325714
-0.065038
-1.066399
-0.923879
-0.274353
-2.126967
-2.773355
-3.299316
-3.341120
-4.068187
-3.291368
-0.859971
-0.687322
-2.809200
-3.007483
-2.567494
-1.579010
-0.933927
-0.520956
-0.212993
-0.465234
-1.176234
-1.232507
-0.350406
1.174402
2.401128
1.491925
0.038439
-0.482027
0.483662
-0.390131
1.691563
2.938661
2.362663
-0.173565
-2.233011
-1.488858
1.750081
1.482972
3.301530
2.401549
0.124787
-2.581671
-2.942615
-1.330174
-0.841626
-2.107615
-1.748556
-2.755138
-3.922843
-4.395928
-2.309224
-1.497531
-1.847166
-3.037694
-2.591886
-2.702355
-3.222264
-3.009871
-1.656000
-1.780957
-2.160053
-3.140208
-3.781863
-4.210433
-3.819082
-2.260530
-1.540674
-0.596638
0.371570
-0.011195
-0.365870
-0.481807
-0.751843
-0.587613
0.605385
0.241752
-0.801375
-0.411885
-0.763039
-1.134522
-1.866214
-2.764968
-1.711158
-0.309630
-0.241253
-0.316529
-1.010857
-2.047383
-2.868060
-2.353976
-1.474376
-0.805869
-2.257672
-1.614061
-1.333695
-2.169459
-1.689945
-0.636005
-1.201105
-1.192673
-3.845778
-5.127127
-3.501467
-2.032234
-1.047798
-0.349163
-0.209241
-0.295427
0.316516
-4.172779
-4.384716
-1.882504
-0.379968
-0.267735
-0.275874
-0.314990
6.655787
6.284982
5.280587
3.756538
1.873948
0.613156
-0.010392
-0.689248
1.699150
2.754676
2.245649
1.524829
1.154722
0.286223
-0.635010
-1.026496
-0.555608
0.091887
0.149281
-0.369912
-0.837588
-1.156544
-2.065814
-1.201902
-0.057345
0.217734
-0.806013
-0.688989
-0.152489
-0.802486
-2.612820
-1.211500
0.429510
-0.380521
-0.496545
0.299726
0.162240
-1.950488
-3.261054
-0.964045
-0.570013
-1.789927
-1.447431
-1.230007
-2.350329
-3.330992
-2.820608
-0.273184
-1.108943
-2.392097
-3.796107
-4.301449
-4.364347
-3.636330
-1.014635
0.704465
-1.127268
-2.143486
-4.147846
-4.147857
-3.065271
-0.259436
1.061069
0.775017
1.142404
1.635099
1.330325
1.294928
2.176726
2.364688
1.332610
-0.120957
0.346886
1.031431
0.642529
0.475854
0.666806
0.246719
-0.227469
0.053724
1.019083
0.082825
-0.949541
-1.361036
-1.592867
-1.972459
-0.776395
-0.187632
0.178739
-1.777694
-1.965536
-1.650540
-1.281231
-1.577116
0.037629
0.595404
-1.370541
-1.600289
0.090573
0.125129
-0.165117
-0.700739
1.460965
1.707065
-1.288371
-1.298893
-0.035772
-0.261403
-1.098284
0.370198
1.759665
0.503877
-1.159209
-1.544373
-0.591220
-0.486787
0.746183
1.818765
1.215090
-1.356152
-0.904899
-1.363273
-0.512609
0.403196
0.964129
0.414422
-1.874299
-2.181723
0.062446
-0.701011
-0.746014
-0.337437
-0.507384
-2.276147
-2.610978
-1.622087
0.267188
-0.355597
-0.270311
-0.755472
-1.920028
-2.196783
-1.293914
-0.056803
-0.281970
-1.422699
-1.593971
-1.818175
-1.995720
-1.874038
-1.059149
2.906053
-0.557800
-0.907165
-0.422139
0.097716
0.213210
-2.116498
-3.622541
1.902767
0.711428
0.196357
0.581040
0.721494
0.722584
-1.538347
-2.488097
0.120732
1.004798
-0.337938
-0.089643
0.066187
-0.202424
-0.962692
-1.038347
-0.809966
1.038713
-0.800290
-0.087955
-0.243416
-0.836635
-1.299730
-0.727104
-0.656468
1.960132
0.219168
-0.831559
-1.252061
-1.911435
-1.209263
-0.503403
-0.030554
1.624696
1.580359
-0.429656
-1.332667
-0.792016
-0.518897
-0.496478
-0.458675
-2.164981
-0.798383
-1.233924
-1.344326
-0.889460
-0.267791
-0.137019
0.219206
-0.914584
-1.848900
-4.793503
-4.780295
-4.022924
-3.942840
-4.043251
-1.794982
-1.010209
-2.051324
-2.795964
-0.737160
0.888526
-0.173434
-2.038251
0.212906
1.343395
0.008979
-0.453761
1.364603
2.555328
0.511402
-1.615664
1.237740
2.079032
0.665675
0.801047
2.091646
2.044866
-0.687143
-1.471886
0.535952
1.397848
1.425826
2.189580
2.310934
0.480310
-1.635066
-1.000838
-0.697480
-0.906681
-1.228862
-1.269642
-1.717632
-2.873544
-3.185857
-2.843587
-2.561890
-1.572813
-1.754573
-3.066277
-4.619490
-4.720149
-4.328616
-3.053125
-2.152750
-3.036295
-4.522238
-6.533607
-6.678807
-4.807520
-2.600183
-1.317983
-0.181927
-1.264205
-0.394240
-0.423705
-0.085189
0.242104
-0.800638
-1.089244
-2.031163
0.310171
0.816258
0.367332
-0.364417
-1.065874
-1.227598
0.022747
-0.633285
0.499546
-0.219231
-1.718535
-2.393085
-2.541507
-1.520985
0.341956
-0.321723
-0.841476
-1.517156
-1.563324
-1.399781
-1.739636
-0.699333
0.344593
0.388252
-3.217777
-2.732859
-1.312428
-0.992906
-0.845260
-0.325864
0.242215
-0.560364
-3.131732
-3.675653
-2.621131
-2.029695
-1.547452
-1.267220
-1.023001
-1.509557
-2.351485
-4.701597
-4.693766
-4.134295
-2.846376
-1.285326
-0.928736
-1.770736
0.811540
-0.710257
-0.727045
0.006344
0.377218
0.163740
-1.111720
-1.833530
2.856899
3.374879
-0.004177
-1.885046
-2.613533
-2.790920
-1.442279
-0.863437
2.633306
-1.598711
-4.947980
-3.549094
-2.813561
-1.915842
-1.633623
-1.535751
-1.590603
-4.026908
-3.524776
-1.148460
-1.373133
-1.844634
-0.784132
0.368688
-2.534905
-2.635159
-2.057165
-1.640342
-2.783217
-1.784357
1.725767
1.194420
-1.595489
-1.942104
-2.681062
-3.151905
-2.086732
1.419966
2.937577
-1.900610
-0.916618
-1.237812
-1.396133
-0.765490
1.826368
3.388682
-0.958915
-4.819042
-1.173420
-0.579483
0.149551
2.145339
2.897546
-0.865609
-4.800661
-4.370223
-0.069169
0.583839
1.023662
0.473373
-2.470559
-5.070714
-4.061560
-1.451002
-1.278657
1.330051
-0.587838
-2.274508
-2.198377
-2.216895
-4.048028
-1.472662
1.083089
0.528176
-1.537525
-1.875593
-1.206041
-1.728876
-5.592668
-2.539515
1.186936
-0.711231
-1.777369
-1.790610
-0.028137
-1.743181
-5.806071
-0.555154
0.058157
-0.843963
-1.465287
-0.548618
-0.607593
-3.916213
-3.071114
2.141608
-1.191494
-1.142438
-1.158581
-1.191888
-3.145211
-2.913392
1.235323
2.517932
-0.570203
-0.708166
-1.195302
-1.822827
-1.490151
0.771942
1.303150
-0.915176
-1.336970
-0.666421
-1.776348
-2.434618
-0.951895
-0.675006
-1.870750
-2.594076
-2.397163
-2.123780
-2.008797
-1.855146
-1.261820
-1.905914
-2.365694
-2.078367
-0.232828
-1.175686
-0.294332
-0.787658
-1.388458
-1.824722
-0.361415
0.213898
-0.752164
-0.782633
-1.127264
-1.918762
-2.052572
-1.527553
-0.210253
1.390345
-0.203195
-1.354008
-2.033688
-1.753198
-1.660996
-0.737568
-0.123008
0.894830
-0.645296
-2.187219
-2.686419
-2.114668
-1.381839
-0.258866
-0.774117
0.206547
-1.340279
-2.952152
-2.840894
-1.689638
-0.626200
-1.061662
-0.601523
0.806290
0.581438
-0.460173
0.278745
1.061356
0.495161
-0.505081
0.626202
0.399649
1.441316
0.109145
-0.172184
0.002889
-0.605951
-0.341065
-0.360218
-1.615688
0.930472
0.473063
-0.516905
-1.362240
-1.311536
-1.221586
-1.533658
-1.756730
-0.159477
-0.612418
-0.282149
-0.845606
-1.452631
-1.721014
-2.071280
-3.015149
-1.867679
-0.880441
-0.033661
-0.759162
-0.556973
-0.922903
-0.736764
-2.279552
-1.323298
0.627986
0.890123
0.966513
0.723605
-0.132095
0.686158
-0.590844
-1.188596
0.596406
1.189696
0.249054
-0.456041
-0.023039
-0.159407
-1.313075
-2.210850
-0.547459
0.069073
-0.295448
-0.211875
0.373399
-1.190259
-1.257804
-3.632905
-2.762683
-2.593367
-2.014420
-1.145700
-1.491940
-1.589760
-0.548370
-1.093502
-0.558487
0.076867
-0.275744
-0.715854
-1.295350
-0.772996
-0.239134
0.059563
-0.332191
0.664893
-0.069113
-0.499172
-0.498435
-0.565142
0.023552
-1.870874
-2.342015
-2.732876
-3.113064
-3.894223
-6.065553
-4.259402
1.850845
-2.248514
-2.548511
-2.311821
-2.099462
-1.822971
-3.967419
-5.842978
-2.928488
-1.903811
-2.489508
-1.332637
-0.695730
-0.668499
-1.292912
-3.235764
-3.370785
-1.163320
-1.433605
-1.093018
-1.112057
-1.871825
-1.490524
-2.787970
-2.257434
1.690232
0.399815
-0.958795
-1.688118
-1.881833
-1.982205
-2.074654
-1.546072
3.245468
4.598332
1.738761
-0.650298
-0.850892
-2.087950
-2.410393
-2.097271
-3.777977
1.139129
1.923734
0.217994
-1.302295
-2.011226
-2.294489
-1.927720
-8.012749
-6.878329
-3.522662
-2.355546
-2.196093
-2.283221
-1.869340
-1.049536
3.455604
1.506207
-3.884688
-6.847754
-6.307527
-4.846745
-3.662777
-3.564321
-1.470078
-5.071964
-5.041014
-2.878458
-1.812863
-2.369689
-2.907233
-2.273181
-3.331716
-2.436177
-1.063857
-1.237284
-1.808761
-2.287021
-0.914116
0.178363
-1.810534
-1.320159
-1.963169
-2.310603
-2.771703
-1.672189
0.982126
0.951367
-0.701783
-1.683404
-2.729856
-2.876348
-0.995646
2.401223
3.609062
-0.390642
-0.779138
-0.195107
2.504594
5.512891
7.721901
5.569225
-0.180054
-4.149837
1.372108
3.483155
6.227491
6.734737
2.492271
-3.994710
-6.267133
-4.130821
-1.419454
-3.300926
-6.261451
-8.921437
-9.766842
-7.369099
-3.938091
-1.625029
3.802624
0.716190
-3.011250
-3.265769
-2.572192
-1.993955
-1.474686
-1.888350
-0.263652
-4.164375
-3.494787
-2.024823
-1.169193
-0.631232
-1.453968
-2.101280
-3.370979
-2.562099
-1.303789
-0.832565
-0.137246
-0.132048
1.155469
0.553011
-1.118595
-0.516763
-1.198619
-0.327315
-0.804707
0.957824
3.444147
-0.620716
0.861439
0.896759
-0.310124
-0.798313
0.954101
4.465620
1.329785
-3.882314
-0.697462
0.802899
0.774176
1.778291
4.524767
2.809080
-3.895241
-3.766002
-2.228058
-0.503856
0.756095
2.359683
1.042574
-4.187857
-4.627192
-1.423545
-1.250777
-1.602660
-1.050580
-2.339735
-4.815241
-4.424368
-1.638703
-0.693861
-2.103453
-2.590493
-1.243004
0.320799
0.109898
-1.211176
-1.955575
-1.304854
-1.134345
-0.231905
1.904061
2.710281
1.858078
-0.680665
-1.090704
-0.730592
0.623711
1.243343
1.343103
0.584829
-0.939820
-2.993013
-1.474711
-1.016244
1.616937
0.555772
-0.275737
-0.644236
-2.522274
-3.122022
-0.876602
-0.804380
1.305381
-0.018289
-1.448401
-2.422757
-3.448574
-2.548946
-1.160747
-0.533863
-1.360945
-0.624555
-1.449053
-2.269903
-2.292746
-1.524102
-0.786516
0.997032
-4.400689
-5.302749
-5.088436
-4.158023
-2.840857
-0.827564
1.070352
1.732734
-1.293092
-2.857554
-3.107565
-1.951158
-0.075555
1.675713
2.195498
0.930022
-2.236296
-0.030224
2.535140
3.880875
3.893771
1.482111
0.300137
-0.084019
1.449798
3.479392
2.983140
1.925185
1.340090
0.536512
-0.254081
-1.138825
1.694532
0.619778
-0.946588
-1.227290
-1.252606
-0.578465
-1.875938
-2.922455
-0.078125
-1.231063
-1.379108
-0.736230
-1.357976
-1.588811
-2.783519
-1.694593
-1.366681
-2.282861
-2.610943
-2.567235
-3.409942
-3.734884
-1.965538
0.004681
-2.188467
-3.571205
-4.912656
-5.344515
-4.406138
-1.844110
0.914096
1.352362
-1.592102
-2.610855
-3.643646
-2.537682
0.569846
3.219177
2.631943
0.798006
1.687013
2.501917
3.168286
4.669802
5.363459
3.769481
1.072806
-0.482698
0.119553
-0.457558
-0.464943
0.153381
0.824661
1.433098
2.005547
1.781474
-0.357501
-0.656209
0.248206
-0.038512
-1.166691
-1.408920
-0.519130
0.294004
0.361585
-0.202088
-0.439468
-0.737778
-0.846940
-1.454696
-0.360383
-0.166767
0.306599
-0.671110
-0.788799
-0.686572
-0.922451
-1.054189
-0.051095
-0.152855
-0.647968
-0.459049
-0.589702
-0.776680
-0.637165
-0.291509
0.032665
-0.642845
-0.446223
-0.177090
0.098190
-0.386501
-0.822959
-0.527275
-0.105450
-0.311442
0.828952
0.812913
-0.312632
-1.598678
-1.467866
0.001934
0.176713
0.332595
0.175111
1.012186
2.205176
2.089944
2.076138
1.924484
0.766318
-0.344743
-0.200616
0.992400
-0.096912
-0.530796
-1.564743
-3.036664
-3.054777
0.761232
2.078811
1.824754
-1.409935
-2.586955
-2.868670
-3.090807
-2.346737
2.251611
3.928545
-0.570305
-3.411736
-2.470665
-1.902191
-2.106622
-1.802597
2.743838
3.007668
-3.512576
-3.261976
-1.576188
-1.406784
-1.749286
-1.338448
3.517004
1.504218
-3.378588
-2.042619
-1.334803
-1.012970
-1.577557
0.098084
3.860877
1.235318
-1.963135
-1.782320
-1.061751
-1.291522
-0.878797
2.048690
1.512193
0.708235
-1.791381
-2.278766
-1.311913
-0.555754
0.637172
1.031054
-2.690307
0.627810
-1.029756
-2.322425
-1.744219
-0.463465
-0.486910
-2.810295
-3.510427
-0.881711
-0.767943
-0.746933
-0.216909
-0.280391
-1.002069
-1.066833
-0.845579
-1.013768
0.751610
0.257969
-0.332213
-1.049440
-1.605339
-1.701537
-0.492550
0.379305
1.603130
-1.421281
-1.575929
-1.363369
-1.922018
-1.569510
-0.734565
1.431833
-0.388613
-3.154653
-1.865990
-1.830752
-2.060067
-1.836312
-0.896662
0.689698
-1.178715
-3.577185
-2.699900
-2.389614
-2.528438
-1.717528
0.890873
0.354825
-0.275823
-1.830471
-1.617364
-0.969935
-0.966206
0.496550
1.785342
1.013992
1.127609
0.041988
-0.105996
-0.459381
-0.133996
1.374924
0.659920
0.228318
0.241963
-0.469039
-0.676603
0.041742
1.599429
0.662279
-1.536604
0.601564
-0.144996
-0.848966
-0.986733
-0.544032
-0.421071
-0.073205
-1.491968
-0.614332
-0.819638
-0.364980
-0.555147
-1.010262
-0.622366
-0.192489
-0.331385
-0.124642
0.009270
0.245881
-0.491059
-0.666006
0.768288
0.933328
0.791538
-0.395094
-0.261325
0.013014
-0.636517
0.364816
1.485886
1.320411
0.473917
-0.776984
-0.692568
0.392245
0.986531
1.974112
1.696923
0.630877
-0.746150
-1.413531
-1.018825
0.874390
1.466768
0.982786
-0.190689
-0.751696
-0.940100
-0.458809
-1.615680
-0.667703
-0.111387
-1.037212
-1.179765
-0.981410
-0.599748
0.727990
-0.119129
-1.206266
-1.627254
-1.143414
-0.904604
-0.797177
-0.898940
0.013892
-0.898709
-1.189664
-1.117069
-0.308723
-1.389970
-1.556948
2.735820
-0.143144
-0.901135
-0.578622
-0.637759
0.339908
-1.047927
-2.917973
1.051145
0.366819
-0.274808
-0.569644
0.026284
0.108493
-0.664886
-2.069313
-0.079992
1.656893
0.169529
-0.069071
-0.066202
-0.491240
-0.965633
-1.176443
-0.720100
2.557549
0.937068
-0.498864
-0.775443
-0.997303
-1.473330
-1.240229
-0.548518
1.220277
0.964654
-0.682303
-1.276798
-1.038465
-1.426352
-0.756821
-0.403472
-0.566096
0.576039
0.175943
-0.776286
-0.839805
-0.904979
-0.681417
-0.466431
-1.500139
-0.441716
-0.268702
-0.490841
-0.883744
-0.273910
-0.396898
-0.413578
-0.276690
1.220170
1.308849
0.135323
-0.347174
-0.479019
0.063691
-0.831062
1.322991
1.636849
-0.169822
-1.249629
-1.420401
-0.980423
-0.616847
-0.673953
1.913947
1.334686
-0.925128
-1.077498
-0.424437
0.414827
0.234681
0.282182
1.825808
1.028946
-0.481117
0.428869
0.626059
0.167812
0.757345
1.471313
1.530853
1.199329
0.570159
1.843037
1.153534
0.252836
1.700523
1.014575
-0.734470
-1.408424
-0.940770
-0.679686
-0.852968
0.593451
0.973284
0.155874
-0.782494
-2.241575
-2.489825
-2.268565
-0.583896
0.771502
0.088539
-1.038502
0.901478
0.372799
-0.284813
0.312869
1.063757
0.166488
-1.168012
-1.784765
