-2000
2723
12346
19418
20750
6036
-12641
-17053
-4975
-10135
-12796
-2884
12885
17710
5832
-10589
-2568
-10691
-18517
-24239
-23031
-10462
-22
-4534
1528
-877
241
-4592
-10393
-13202
-10336
-7635
-8487
-9174
-13504
-16895
-11995
-13844
-15131
-13186
-14741
-19750
-19225
-17946
-12027
-8274
-11990
-20211
11544
-738
-4797
-3493
1211
6971
14464
9096
28014
28835
11897
7914
4265
2698
3787
12507
-2716
-4361
-5098
-1577
7630
6336
-5271
-13383
-2004
-10337
-10897
-6182
1894
2660
1946
-4744
1015
-4649
-9065
-11913
-13290
-14958
-8912
-4726
-10831
-12311
-15589
-16806
-16926
-16597
-15695
-13170
-24135
-26811
-23381
-20828
-20681
-18763
-18629
-22737
2275
-4373
-7318
-7557
-2043
8188
9179
2395
26062
22402
12179
7872
8563
5165
1115
1803
-1081
5778
5607
1359
-3269
-7847
-6337
-2902
-17932
-26363
-16084
773
1400
-4346
-6983
-4850
-15694
-7348
9061
9756
-3077
-11330
-14276
-5711
2734
9496
8055
-736
-11731
-13837
-12470
950
8058
1881
-4240
-14676
-18302
-8497
-741
742
8158
-1864
-17437
-23571
-7476
3927
27
-8536
-14532
-30963
-33506
-11895
3088
-8181
-20495
-15742
-30437
-27293
-4577
6496
-7158
-12685
-5669
559
-2622
8238
11616
2113
-2522
2828
4212
1618
4035
5698
2564
6834
8820
5771
6677
-1444
421
-5773
-800
4568
6613
8331
7539
-1085
-4099
-8166
-11394
-21748
-18279
-10370
-8078
-1662
-5063
-4396
-4811
-5467
-1452
-3224
-3874
2130
-7881
-5122
-5032
-3633
-4720
-5227
2464
-1189
-5321
-1189
-4005
-5339
-4700
3850
-1492
-5560
1120
-1803
-2954
3107
5697
324
-1200
1750
6845
8159
8102
803
-3959
-3287
2180
4428
-4161
-4397
-2087
8472
15850
7527
-776
-4846
-6248
-8315
-5884
-5723
-1462
-1491
-1733
-5463
875
-1141
-8717
-19636
-19236
-13185
-7712
-4596
-5705
-9267
-10774
-7210
-5277
-6121
-6926
-9109
-12267
-10512
-10525
-7095
-6780
-4957
-9838
-14565
1296
-4048
-6765
251
-646
3537
200
-2662
11103
6364
5120
6273
-3109
-3052
1804
7176
1741
4620
-4215
-12329
-14168
-10453
-2774
-2137
2922
3560
4128
3051
6537
3679
2966
-637
-14070
-13923
-14031
-6758
5944
7537
8647
5
-7407
-7549
-6930
-4946
-5167
-543
6064
3163
-4062
621
8037
4795
-6923
-7414
-4013
2151
1746
9761
11015
-702
-4100
203
3940
2791
1122
-774
-8012
-5266
-4209
-4185
-4249
-7737
-5002
-10667
-10416
-6734
-3288
1906
279
198
-4590
-3463
-1703
-4611
-6232
-5618
-4886
2072
-7531
-5952
-8391
-12118
-11034
-16542
-18755
-16098
-8124
-6120
-112
11333
19684
10286
-1080
-10943
-1965
-3924
-4110
-2276
2140
-1886
-3961
-8838
2744
899
-8531
-8462
-7112
-9575
-6657
-3679
-1143
-1286
-8238
-9411
-13555
-13540
-8270
-7572
-14940
-21488
-21577
-19192
-18688
-14229
-21339
-21796
-15210
-25621
-26109
-15700
-5774
-5622
-11931
-10322
12749
16626
15034
9289
8204
10361
12924
14213
-606
-7553
-16111
-20726
-14906
-6750
2605
5255
-3899
-12469
-16806
-20119
-18456
-11337
-7346
-49
-10857
-10649
-6832
-8905
-9076
-7878
-10375
-4113
-16410
-9811
-7656
-7903
-13595
-9180
-9396
-7497
-8148
-3568
-4386
-919
-1254
-1760
1345
-1779
29736
30268
19274
11152
11207
17919
24021
21722
6500
6623
5123
-4086
-9894
-12322
-13409
-14127
-32263
-37905
-33929
-28695
-25440
-26158
-21860
-17311
-15272
-17186
-10683
-6453
-9294
-9617
806
5841
-19850
-16952
-11109
-9853
-16824
-19219
-2269
11293
-15766
-5055
2640
-3425
-21921
-26447
-7411
9631
-13211
-2422
3111
-6608
-17132
-15590
-7985
976
-9445
-8138
-9498
-14560
-15850
-13581
-10800
-4463
-9132
-8493
-9428
-14395
-11789
-10664
-5742
2010
-14662
-7652
-6299
-16894
-11188
-8937
-9356
-5045
-23710
-17281
-8447
-10889
-12754
-12185
-8557
-8296
-5211
-16136
-8776
1206
936
-1518
-1633
621
-20802
-18184
-11367
-12412
-10751
-11239
-8320
2255
-8661
5202
6475
3803
-2625
-11770
-3696
6133
-1619
5917
11283
6122
-8867
-7692
6002
1744
3440
6333
-2483
-15437
-12608
1636
3372
-669
3731
-5714
-16563
-13890
392
153
-6035
-4062
-10497
-17205
-6240
-3891
-8715
-3501
1341
2923
-19885
-12298
-7403
-10752
-9093
-6144
-7453
-4617
-5090
-7579
-7972
-10810
-11165
-8042
-5089
-5199
-4091
-7738
-6205
-10468
-12746
-10499
-2622
-2154
-15629
-11313
-5739
-8836
-10880
-12844
579
1166
-15283
-2559
-755
-7375
-6790
-16321
-2550
-1287
-9971
596
-2775
-8797
-14994
-13066
-343
-2860
-1891
3981
-2515
-11422
-15060
-6469
2174
-4509
-2437
-105
-8183
-16458
-10776
-6850
-7217
-9093
-10604
-10141
-9631
-11534
-7151
-7385
-12000
-8694
-21203
-10206
3387
3221
-1576
-1409
-768
-977
-6097
21234
12592
-8648
-19381
-14336
-2124
-2788
19375
20675
-6204
-20728
-24084
-2368
6584
-3265
18978
-2962
-20342
-28352
-9964
22206
9111
-12631
-3241
-24612
-30164
-21773
7723
16648
-11400
-15474
-16506
-28762
-20765
4968
16814
-5345
-17246
-1374
-16667
-1996
9038
11625
-4137
-14060
-2808
10768
7096
16481
3949
-8505
-6820
-4062
3449
75
-9191
-15193
-18347
-19123
-10723
-7472
-2795
1871
-8708
-984
-1908
-4264
-7687
-13545
-6322
-3169
1926
8050
12568
16645
6942
-2936
-2004
-6342
-2045
-5221
-5366
-1115
-2646
3991
-807
-2231
3506
7686
2444
-2510
-1738
1906
2535
1666
5217
-1335
-7796
-1513
122
-970
-2381
-3683
-19283
-18447
-12831
-9024
-17647
-14368
-14421
-7581
-17204
-12876
-11579
-10392
-4260
-3583
-5266
-4798
-4112
-17412
-20305
-7370
-3996
-3101
-2244
-2298
-13854
-24943
0
5236
-396
-5604
-6369
-1405
-26310
23
23553
-2162
-7883
-22798
-13612
3827
-5530
28762
3859
-13926
-15126
-26290
10195
10473
10358
8315
-15200
-11552
-24662
-9901
24857
-3418
-849
-12266
-19202
-23478
-18188
17846
4400
-19860
-17862
-22640
-21043
-11368
12490
7202
-16451
-9937
-19566
-12426
6006
16870
4315
-11691
-8379
2245
-988
-5242
-421
-1405
425
290
-3106
-2154
-5635
1279
5415
-2751
-1346
-723
-3394
-2274
-4376
4465
-5885
-3729
-3331
-2726
-1525
-1499
12838
5817
306
4239
-4667
3103
2693
-2343
18593
5584
7335
464
1689
16016
985
1483
-4869
-9179
-4107
-10416
460
-6452
-18993
-7910
-14209
-14437
-9581
-3634
-3066
-13933
-3104
824
2769
135
1489
-1229
-2066
1065
1387
-1203
904
-7414
-12338
-4865
-8132
-13829
-14867
-2999
-4975
-21622
-12646
-4851
-5618
-9240
-17477
-5383
-13965
-20175
-3443
-510
-6138
-11766
-16709
824
-18760
-11264
4536
-2151
-8315
-21523
-14600
3267
-14195
-572
3449
-2790
-13314
-22619
-8140
458
-5776
-2220
-569
-4925
-12195
-4689
4634
-6912
1736
-11137
-8277
-10511
-8501
-3134
-4430
-13572
-10950
-16994
-15892
-12362
-5744
-8321
-11251
-9330
-3121
561
3513
8057
11521
4342
-7110
-8064
-8004
-13313
-17394
-16305
-10598
-3567
-7453
-9170
3569
3785
535
-1621
-7026
-6196
-6958
-9146
3399
-4161
-5547
-5508
-5670
-4103
-6083
-7189
-5624
-8685
-8552
-11962
-8622
-5760
-9652
-11512
-7548
-12715
-12239
-7146
-792
-211
-3044
-11312
14327
3076
-2620
5366
6181
6042
7456
3981
3499
4593
1049
707
-5075
-10959
-10799
-5876
-7915
-13331
-12542
-9733
-4171
-12358
-21113
-8435
-7856
-12513
-14924
-14862
-3419
-9748
-23823
-10089
-1157
-15357
-14368
-10315
5504
-451
-17544
-8738
-5762
-18424
-16235
-16611
-5826
-4534
-19212
-10336
-15141
-19133
-18642
-18263
-7931
-13221
-18740
-16592
-12122
-21364
-17604
-6723
-5101
-12078
-10953
-12534
-2082
-11000
-8800
-5187
-13032
-10152
-4953
-9586
-2462
-11294
-12667
-12077
-13021
-8465
-3132
-10795
-7743
-9210
-12976
-14749
-13944
-15905
-15134
-13748
-6740
-8400
1023
6128
4151
-3704
-11955
-13302
-11316
-10043
-2786
337
908
-1528
-6545
-9119
1417
9563
1470
-5689
-9114
-10816
-3091
-442
11876
7250
-8729
-14828
-14532
-10174
3506
-3288
-15587
-23490
-32143
-32363
-30869
-24456
-19868
-19713
-25854
-30375
-32330
-28151
-12147
-4913
-8888
-10588
6306
2557
995
6291
10849
10148
6143
5577
-6983
-10998
-14177
-15250
-5886
4223
-2515
-9284
-9450
-9386
-12910
-10440
-3002
6154
4679
-7626
-5838
-1324
4950
5516
-1429
-3086
-659
-6873
1379
8590
-378
-12055
-12160
-10031
-4432
-3596
1663
3025
-10712
-15354
-12477
-6302
3302
-5831
2685
-10505
-16339
-14361
-13026
-3937
6062
-5692
-2741
-6787
-14548
-11276
-2496
971
-6160
-3675
-8362
-1184
-664
6342
8320
-2488
-8834
2051
4353
-273
-6701
-9581
-5978
-2264
3749
912
-1954
-1568
4297
15483
17800
10829
1288
-1388
128
1129
-3449
-6680
-4749
-3884
-4287
-3451
-1386
-3874
-4561
-1528
-2151
-334
54
-1286
-781
-2743
363
1524
-2279
-4125
101
1247
5517
10557
2039
-6104
-1575
2038
725
1908
-7067
-5838
-1897
2108
2551
-536
-7004
-6836
-1711
497
6039
3155
-1827
1075
12612
14476
-18106
-19548
-10810
-1995
633
1403
-298
-2385
-21312
-2007
9162
13388
4236
-3386
-720
-948
5008
17837
15002
-2545
-16840
-8561
-1169
6102
16847
12743
277
-20837
-24668
27
9340
5297
7269
-5915
-20108
-30525
-10007
6572
5138
-3527
-12056
-26420
-35417
-18367
2286
-2466
-10445
-9304
-25239
-22216
-7813
9933
6757
-4499
-2878
4360
-1269
15328
21942
13554
4922
6762
11772
13120
-8707
-14100
-7824
-3577
4516
-8465
-16198
-11978
-3132
923
7667
16219
22966
7031
414
-5692
-2561
-3601
-10064
-8658
-12256
-18951
-10938
-7207
-4960
-10379
-20822
-14891
-11101
-13338
-11683
-11475
-14323
-17516
-18096
-14204
-12242
-11678
-19591
-19038
-15966
-21769
-13827
-14891
-16164
-9140
-10713
-17294
-1297
-8262
-7001
-11732
-7258
-8175
-9599
-7158
14496
19451
15334
8258
4648
7560
10488
11721
-8461
-23004
-30345
-24461
-14527
-6172
-5687
-3822
-24093
-19841
1178
14358
18143
9579
-703
-4097
-16309
9538
16432
6525
-1077
-8160
-6144
-525
19320
27445
16328
3635
-12768
-10983
3015
9072
18776
10374
2464
-17233
-21386
1437
11063
5042
131
-13297
-30064
-36849
-7518
8764
-3826
-10322
-26149
-40448
-37264
-8551
8545
-9288
-14685
-5207
-21233
-6404
19548
23609
11502
8997
19263
21586
-9213
-6067
7121
21232
26787
17315
5517
-1573
293
12901
14674
1455
-6772
-7655
-7750
-2164
6144
22
-14988
-25332
-21782
-15127
-8149
-2277
-241
-6013
-6214
-1375
-2578
-3069
-174
-3750
-9149
-9493
-10616
-13553
-7434
-2630
-3363
-7023
-17653
-17041
-17299
-6932
175
-7580
-12329
-11138
-5105
4456
17741
16396
3235
-1237
16353
17220
29003
33369
19835
8341
8051
15968
7745
-431
-3249
-13003
-13425
-7361
-8661
-6658
-4430
-2609
-10985
-16672
-5795
-442
-2938
-6072
-2272
-244
-18668
-9330
5148
5207
-9238
-19583
-5037
4804
-17776
3891
2208
-298
-16703
-23269
3865
6314
-8598
-2071
-5412
-9459
-23781
-15887
5947
-1885
-2860
-8921
-12923
-17881
-20308
275
3910
-5868
-6503
-10990
-13378
-10649
-5881
4152
-7139
-5920
-14541
-11006
-8124
379
4629
-4935
-8622
1292
-17127
-18466
-9866
-9466
-17094
-6990
-3725
-5934
-24914
-8316
746
-8343
-21293
-10960
1613
-2607
-14305
7203
4214
-11687
-28290
-14799
9549
92
1656
11953
-7578
-30017
-38905
-13251
11484
-2130
3788
-2203
-19108
-34250
-18056
4308
3650
-12485
-7238
-15434
-24466
-22002
-4399
792
-7924
-11659
-19123
-17118
-18748
-10511
-4027
-13325
-18168
-7211
-21822
-6101
-6996
-8511
-10864
-15502
-15505
-3229
-2525
-1287
1173
1795
1570
-112
1549
910
8463
15421
15955
12407
3974
-1867
-376
580
5493
2584
-6267
-5380
-6161
-4683
607
-1942
3424
-2254
-3193
-1372
-1811
1506
-1284
-3194
-981
-3035
-1950
-1873
-1008
4258
-2402
-286
-492
-2029
3764
3381
2410
-2374
-5074
2944
-3298
3000
7347
1365
-794
-4498
1187
358
11236
12416
6456
2328
6299
11573
8753
3053
-1561
-7878
-8231
-3111
5564
3419
-2537
-1418
-12023
-16371
-18522
-17257
-11093
-6968
-11239
-6294
-16922
-16510
-17182
-15392
-14042
-12387
-11743
-8817
-4553
1259
4475
5739
1466
3852
-842
-6693
13964
7826
6822
2010
-2149
5650
3848
-2538
10482
-3705
-6180
-11216
-10129
-8046
-10924
-7699
-8295
-14347
-16427
-21435
-16482
-13908
-7109
-1471
-7327
-14829
-22259
-17654
-17204
-16361
-10293
-5497
-546
8796
21551
20039
10256
-9941
-19341
-12421
-4600
-6163
-8470
-5925
3725
6928
-5235
-12519
-1857
-6708
-13041
-16165
-9912
-4342
-3485
-9340
1598
-4325
-10880
-9274
-12335
-10377
-6591
-5079
-10965
-11437
-10494
-12915
-14770
-12515
-12887
-12528
-30151
-25426
-14224
-11866
-11532
-9782
-16353
-21898
11298
-854
-2535
5273
10110
13683
14689
3947
33947
22132
12825
12459
7268
397
2858
7210
-10306
-2026
4891
7750
5294
2231
656
-3979
-7928
-3322
-1186
-4180
-10250
-6949
-3410
-4690
734
1649
-6561
-14896
-18017
-7934
1504
-523
5580
4926
-4251
-11735
-12840
-3570
-2005
-5437
-4880
-14932
-19179
-17817
-14623
-9853
-12115
-12406
-18532
-25538
-26722
-20459
-11990
-13370
-17353
-8812
-7057
-1065
-3061
83
3135
2024
2863
8721
9907
12920
10475
6539
1607
2076
6713
6280
2450
8222
3330
-6342
-6393
-4661
-4279
-794
4131
2625
-4759
-10301
-3154
1529
-2095
-1977
4760
-9880
-16630
-18836
-5975
2894
-2760
-3560
-5843
-12327
-8727
1009
8793
6781
-2272
-5871
-7956
-9560
-2262
7067
3700
-4850
-6213
-1448
-4963
-60
4400
5249
-5313
-8649
-3477
1030
5216
1214
-3147
-5750
-6089
-6878
-2744
-3080
4656
-2552
-11977
-11912
-7638
-4996
-684
-1389
-574
3414
-1290
3441
2507
7769
5327
-4304
-6595
-6797
-9337
-3894
-5850
12264
11840
-3378
-4154
-7143
-5670
-13971
-13329
6840
10660
19
2526
6937
6429
-3925
-8298
-7809
1240
2539
-1990
2012
-641
-6210
-6373
-6844
1366
897
-1395
-4063
-7171
-6617
-2216
-1963
196
402
383
-3694
-9062
-4628
-407
-3218
3076
8064
-2268
383
-6569
-5546
-6683
-5920
-3830
3458
16
3665
3375
-6183
-12660
-6841
3327
3206
-11809
-7890
-23048
-26766
-24428
-13245
905
-2484
-11035
-6815
-14164
-11989
-11852
210
7364
-7089
-2537
2949
7354
3455
-3901
7089
5479
-6302
12737
12226
7470
1538
766
5868
249
2082
9300
9288
2677
-4477
-6612
-7010
-10884
-143
-2609
-4963
-16382
-20695
-16869
-13417
-12011
-4041
-19228
-23003
-29914
-28399
-23223
-23401
-19544
-11463
-8298
-10461
-14109
-24771
-26539
-21613
-11614
1508
-7019
-817
-4411
-12874
-9587
-9202
-10464
-3330
-2343
2223
1216
-1133
1301
-3207
-5682
-7803
-615
-9046
-21040
-15893
-7208
-413
-3714
-8164
-1456
-8354
-10903
-5785
-3792
-3402
-7359
-5183
-8085
-12738
-6814
-7142
-4796
-8352
-12743
-10982
-19032
-23860
-16972
-16721
-17887
-19113
-22111
-18181
-10804
-14619
-13430
-8016
-7267
-13014
-10893
-4272
-7540
2308
5394
-3620
-5333
-3305
-4197
-5139
8021
16078
-127
-13310
-14351
-10897
-4489
-4115
17331
-2549
-25892
-29216
-19593
-8730
-3419
-10622
-5594
-24652
-28690
-16976
1677
5587
-9563
-16989
-21400
-25350
-19705
-4094
5743
-8397
-21904
-15495
-18603
-12722
-4038
4713
-4851
-21442
-15392
-4533
-72
9810
10024
-4290
-16912
-15211
-6726
-1941
13880
12022
-3154
-15790
-11289
-3565
-2612
-8500
-17282
-8486
3230
1101
-11281
-12773
-2724
610
-16710
950
-872
-7848
-17597
-13322
5617
2834
-2027
4223
-6437
-13020
-32467
-12521
8312
1093
2265
-3157
-6000
-21427
-26892
-1979
4479
-5660
-4983
-11266
-16861
-22070
-5487
4443
-11444
-9815
-13928
-16223
-11420
-1680
5545
-4365
-12710
-4739
-13445
-6742
-844
-5420
-7997
-13356
-10203
-5606
-10310
-3080
-9746
-15728
-14721
-17530
-16537
-4440
94
-4331
-5041
-5514
-3542
-5461
-9511
-9281
-85
-5004
-4685
-5629
-6254
-2547
-10033
-10111
-2795
-6323
-10384
-12313
-8911
-338
-10072
-8653
-4603
-10173
-16420
-8895
-7650
-4109
-5272
-7207
-8691
-12569
-15520
-12119
-11612
-5292
-7468
-13347
-3225
-3741
-5281
-7306
-2385
5680
-2647
-8098
5360
-776
2
1949
4783
-4850
-5747
-4133
3117
-3096
-3933
-5990
-6319
-9056
-3437
-3751
433
3978
2856
3017
-3494
-3490
-225
5072
42
-4707
-2983
-5653
-4745
-7241
-5211
5428
-3969
-11153
-6256
-11296
-8577
-9654
-10138
5138
-1745
1488
2615
3248
9146
3176
-2236
4970
-4921
-5665
1472
7579
-3806
-8005
840
5056
-11303
-10417
-946
-5742
-12917
-13409
-9239
-3503
-8278
-6694
-6141
-7860
-3496
-870
-4123
-286
5460
559
2069
2371
-240
-163
3592
37
-12836
-14489
-11931
-1158
19968
25736
9028
-7137
-13222
-17840
-26033
-34120
-16926
11813
22304
8150
-12974
-10275
-14294
-26365
-37166
-26258
-3799
6999
-13188
-11336
-11188
-7420
-15701
-18837
-16000
-6933
-20634
-16269
-13784
-11554
-14545
-9744
-9669
-10613
-2543
-10190
-7461
-9161
-9493
-4785
6592
2071
10935
932
-10618
-12285
-13241
-16128
332
14893
-18010
-1882
-8386
-16512
-20793
-22493
-23861
-6708
-1037
20757
33606
27643
11808
2411
2901
2630
10377
7674
-17443
-39966
-39789
-27187
-10894
-1351
-1135
-21408
-32885
-27028
-16172
-3563
-3031
-6882
-19990
-24899
-19466
-14914
-3640
-12
-9789
-15873
-29570
-31206
-22640
-9136
782
-11280
-21180
-18125
-12506
-2234
11657
18034
4289
-11814
-2405
11412
26167
44587
38379
10656
626
12747
19029
10409
9365
-10701
-28691
-23648
-14318
-21684
-29231
-27820
824
13892
4861
-2907
343
2156
5567
-777
18547
8280
-13626
-16085
-14116
-7941
3913
-456
9202
-17223
-16352
-13571
-10362
-4523
-8259
-8319
-15096
-15349
-5560
-3252
11078
1323
-16909
-9058
-12468
-4837
-5745
9742
16462
-9700
-10970
-2500
377
6595
13153
19242
-9612
-12695
5691
4267
11107
20736
14311
-10844
-14457
-2752
-2525
-3385
6133
565
-13834
-14306
-7071
-7303
-14445
-12954
-15146
-17372
-25456
-25935
-20114
-4985
3674
382
-8705
-9891
-9284
-13902
-17922
-12531
-4704
-1938
-6241
-1277
9104
1940
1838
1593
-1979
-1780
-1813
5435
-2625
-12513
-7016
-7751
-4347
-969
4629
-160
-12111
-12549
-7305
-4499
1692
-585
2638
-7259
-13245
-8463
-8074
-2060
6019
6063
-15634
-12816
-19153
-17703
-12953
-10288
-13154
-7486
-28940
-24704
-17682
-9613
-5714
-7474
-6999
-5659
-10150
-18006
-20023
-21021
-12375
-10378
-10237
-7082
-8271
-738
8551
7315
3828
-1269
-7510
-6515
7888
20697
23069
16607
6311
-4157
-956
-802
13961
10894
-5713
-10767
-12539
-6193
2620
2635
11403
-1912
-13472
-13404
-8838
-629
1924
-3398
-10751
-24801
-26680
-19071
-6574
-9711
-11795
-12144
-24159
-27928
-22675
-5507
-6707
-13148
-13522
-5684
-4663
6974
12192
12720
7984
5303
6988
12040
52
3925
2791
-3483
-4256
-3840
-844
-3978
-2213
-1086
1578
9975
16196
15163
8325
-1455
-5270
-5305
-8528
-7608
-2028
2267
5473
1105
31
1969
-211
-8642
-9073
-4975
-4487
-1763
288
-2507
-4827
-4157
-1359
-2415
-3730
591
-3561
-1505
-3444
-5392
-2280
-2978
-1536
1088
-6641
-8061
-9762
-6075
2182
367
-2444
-4840
1266
2107
658
2651
1579
2993
7014
9573
-5410
-3680
-2930
-9305
-11944
-2838
-4077
-9193
-3881
3460
452
-10422
-17579
-6183
-5200
-11979
2870
12681
-6315
-21286
-18751
-5416
-1618
-16583
11141
2799
-21563
-18214
-12860
6609
8926
-19314
7779
-11046
-20180
-12014
-9471
13575
2537
-19680
3305
-12066
-13471
-7498
3727
9247
-11479
-15777
13
-3334
-5596
-1083
7590
-6600
-17478
-5097
-1657
1675
-3196
-2179
-8730
-15072
-9329
-2670
-7296
-4822
-4617
-4907
-5678
-6496
-5467
-7963
-5632
-8036
-5208
-7012
-5992
-5820
-4901
-6367
-6023
1575
1399
-5308
-9852
-6279
-5127
-5657
-2680
9179
-4157
-15092
-15107
-10239
-1232
-5760
719
-3692
-19059
-19000
-13779
-6752
-726
-10146
-2442
-10470
-18167
-14579
-9031
1338
-4092
-11261
-1470
-501
-3819
-7587
3568
5855
-4256
-6105
-2632
328
-496
3053
116
-8179
-7813
-2484
3302
5887
-767
-9753
-5732
-7370
1095
4610
5661
4097
-739
-2563
-1333
-6090
-2863
1618
-2540
-6862
-7660
378
386
953
-4676
-6053
-2777
-3611
509
3621
2579
3214
-3844
-3211
-2876
-3871
4325
7922
5176
-757
-1169
3214
1344
5733
5636
4526
-895
-450
2765
1011
-657
-2197
-2802
398
323
-1962
-6084
-7987
-1936
-10681
-8596
-1191
-100
-2419
-3637
-5631
-3548
-2730
-6188
-3045
-665
9761
6199
-4834
-2474
-3036
-4020
-5846
-9669
8409
10586
-2075
-1022
-1090
-1659
-7569
-13461
2601
5997
2311
468
3478
-191
-3320
-7951
-3734
301
2185
2413
-81
-1109
-5510
-3493
-919
2503
-1298
1491
-1527
-4700
-8692
-6538
-3985
3
-408
-667
1179
-6159
-3795
-3981
-8245
-3829
4602
-4228
1550
-3203
-4626
-1812
-5109
-6924
2296
720
-20
-84
-5112
-6117
-7583
-458
1749
-1868
7811
10202
4240
1590
-4131
-1666
-557
427
3960
-1028
-4185
-5819
-3262
-1050
-4087
7534
9594
953
-4958
-1980
3838
4934
-2659
11263
8876
1940
2228
10335
10049
10682
1949
6737
6408
-1573
2776
7576
4778
-611
-4100
-9321
-5819
-4832
2417
-400
-4383
-10087
-11899
-2291
-232
4423
-638
-3743
-938
-1608
-2352
